/*This file is automatically generated from a Keras model*/

#ifdef HAVE_CONFIG_H
#include "config.h"
#endif

#include "rnnoise/rnn.h"

static const rnn_weight input_dense_weights[1008] = {
   28, -17, 12, -52, 4, -15, -11, 44,
   12, -9, 18, 24, 27, -34, 8, -4,
   -30, 45, 21, 34, -13, -6, -4, 33,
   -1, -36, 61, 26, -16, 18, -38, 16,
   26, -18, -39, 19, 34, 8, 99, 19,
   -14, 11, 20, 23, -58, -7, -51, -12,
   56, -38, 50, -83, -25, -46, -76, 91,
   31, -4, 36, 53, 31, -8, -60, 7,
   -50, 55, 36, -27, -33, -36, -13, 11,
   60, 22, 33, -56, -64, -31, 20, -31,
   -98, 65, 20, -107, -42, -28, -9, 28,
   -50, 25, 35, -80, -17, 13, 21, -55,
   -26, 51, -62, 37, 2, 103, -35, 46,
   45, 30, 14, -16, -7, -43, 23, -14,
   -87, -4, 63, 59, 48, 40, 50, 80,
   -18, 64, -7, 43, -3, -10, -64, -53,
   -40, 38, 3, 24, 34, -33, -15, 22,
   6, -6, -84, -35, -7, 31, 14, 86,
   -60, 83, -54, 51, -7, 23, -89, 127,
   -40, 109, -86, -38, -7, -3, -28, -20,
   3, 123, 7, -112, 3, -128, 73, -3,
   34, -1, -47, 112, -24, 24, -7, 72,
   67, -23, 31, -90, -74, -56, -61, 16,
   73, -33, -40, -63, 4, -59, 52, -58,
   -39, 11, -91, -15, 34, -10, -61, 8,
   -36, 9, -21, -34, 4, 88, 70, -61,
   12, 9, -6, -81, 27, -10, 88, 24,
   -53, -48, -35, 121, 105, -118, 64, 52,
   -26, 91, -21, 44, 3, 6, -30, -23,
   54, 23, -46, -99, 38, -39, 19, -35,
   -62, 29, -43, 53, 10, -81, -1, -33,
   -63, -57, 52, -119, -31, 27, 99, -95,
   43, 126, -109, -67, 97, -35, 36, -3,
   -105, 45, -2, -21, 71, -64, -62, -64,
   68, -12, -58, 31, 47, 85, 16, -4,
   97, 3, 22, -41, 48, 72, 3, 77,
   -35, -29, -54, -32, 52, -33, 88, 53,
   119, -2, 12, 63, 46, -44, 36, 7,
   94, 52, -14, -30, 71, 50, 39, 74,
   -38, -25, -58, -19, 103, -67, -31, -91,
   -74, 85, -57, 62, -17, -13, 53, -61,
   39, -106, -80, 3, -51, 35, -58, 104,
   -40, 43, -119, 9, 119, -103, 46, 45,
   72, 40, -120, -36, 46, 127, -55, -12,
   120, -51, -22, -96, 121, 23, 92, -15,
   0, -77, 28, 26, 30, 7, -71, 21,
   -2, -95, -20, 85, -37, -2, -72, 3,
   89, -65, -86, -84, -14, -64, 32, 19,
   -39, -16, -66, -128, 14, 97, 46, 62,
   -100, -58, 41, 23, -92, -30, 24, -57,
   -19, 8, -48, -53, -105, -33, -61, 65,
   -108, -28, 7, -55, 41, 72, 9, 82,
   49, -28, -2, 74, 52, 44, 9, -86,
   102, 36, -76, -2, 27, -27, 102, 120,
   -108, 25, -114, -97, 127, 15, -108, -19,
   -21, -6, -70, 63, 83, 10, -13, -32,
   3, 50, -51, -105, 65, -95, 60, 76,
   -6, -8, 69, -64, 96, -31, 86, -55,
   7, 61, -37, 48, 58, 86, -93, 24,
   62, -95, -82, -24, -52, -61, 0, 28,
   16, 69, 7, 70, -31, 64, -6, -41,
   -89, -27, 57, 67, -28, -23, 125, 16,
   30, -32, 73, -27, -78, 113, -55, 116,
   9, 22, -29, 35, 93, -96, 39, 117,
   18, 99, -111, 95, 31, -6, -115, 14,
   -29, -3, -11, 51, -31, -66, 79, -33,
   44, -126, 99, -86, -53, 104, 112, 61,
   -29, -128, 127, 59, 95, -57, -45, 117,
   -57, -51, -53, -64, 87, 3, -92, 86,
   -5, 25, 36, 4, -20, 21, 127, 79,
   80, -126, 102, -17, -17, -74, 116, 110,
   -111, -94, 124, 127, -125, 102, -124, 88,
   106, -113, 116, -57, -89, 95, 100, 57,
   119, -128, 51, 4, 103, -92, -39, 127,
   -100, -70, 80, 11, 62, 127, -3, 119,
   -73, -49, 49, 97, -109, 42, 127, 92,
   125, -122, 97, 27, 102, -87, 43, 126,
   14, -54, -103, -43, 82, 104, -21, 40,
   0, -118, 127, 17, -79, 123, -31, 83,
   118, 10, 19, 73, -86, 2, -5, 106,
   -81, 1, 40, 110, -34, 20, -70, 45,
   -3, -50, -9, -32, -1, -75, 56, 18,
   25, 52, 48, 11, 117, 15, 41, -8,
   110, 86, -67, -28, 60, -112, 70, 106,
   72, 113, -32, -3, -22, 87, 101, -91,
   74, 107, 117, 33, 4, -10, -10, -44,
   88, -73, -89, -5, -71, 40, -4, 21,
   -19, -119, -46, 65, 3, -7, -70, -36,
   -91, -67, 64, -85, 58, -92, 70, 34,
   47, -52, 114, 72, -55, 7, -80, -121,
   -121, -14, -44, 15, 9, -35, -24, -74,
   -32, -62, -120, -4, 81, -40, -11, -13,
   -87, 38, -113, -115, 22, -66, -39, 26,
   -24, -53, -39, 25, -12, 29, -103, -34,
   2, 39, -34, 10, 9, -29, 25, -11,
   63, 54, -28, -88, 30, -19, 73, 4,
   -43, 12, -105, -37, 85, 29, -30, -95,
   -36, -20, -33, 10, 12, 3, -17, -53,
   -14, 109, -4, 38, -36, 2, -41, -57,
   -23, 27, -82, 20, 20, -45, -106, -84,
   -78, 106, -86, 11, 95, -25, -3, -10,
   38, 63, -69, -75, -28, -23, 60, 85,
   97, -112, 25, -93, -98, 39, 95, 15,
   54, -42, 119, 23, -2, -49, 88, 127,
   17, -41, 98, -22, -3, 127, -128, 109,
   76, -79, 99, 11, -67, 56, 127, -6,
   123, 13, 120, 41, 0, -73, 34, 127,
   24, -100, 120, 35, -56, 80, -53, 20,
   74, 92, 37, -66, 37, -10, 43, 71,
   -24, -50, 0, 114, 107, 11, -95, 63,
   -48, -38, 31, 82, 12, 14, -54, 33,
   119, -28, 42, -26, 13, 34, 22, 95,
   -111, -37, -3, -40, 42, -121, 52, 35,
   -56, 107, -9, -2, -89, 75, -89, -98,
   59, 4, 40, 122, 7, 13, 79, 45,
   -72, 85, -17, 39, 26, -18, -17, 35,
   -105, 87, 23, 56, -72, -45, -109, -17,
   -27, 92, -43, 91, 94, -55, -110, 91,
   -120, 24, -93, 18, 17, -86, 6, -17,
   -7, 70, -48, -114, 57, -120, 40, 53,
   -57, 54, -5, 12, -3, 26, -60, -90,
   -83, -10, -7, -64, 61, 97, 10, 35,
   -13, 1, 16, 23, 65, -86, -41, -47,
   -4, 84, -21, -106, -14, -38, 30, 78,
   87, -82, -51, 21, -35, 56, 113, -88,
   49, -29, 80, -57, 26, -31, -15, 75
};

static const rnn_weight input_dense_bias[24] = {
   12, -2, -1, 35, -42, 13, 6, -46,
   -28, -3, 12, -77, -17, 14, -16, 21,
   -25, -18, 4, 30, -3, 9, -40, -30
};

const DenseLayer input_dense = {
   input_dense_bias,
   input_dense_weights,
   42, 24, ACTIVATION_TANH
};

static const rnn_weight vad_gru_weights[1728] = {
   -52, -22, -79, 56, -31, -39, -55, -31,
   -106, 14, 96, -14, -1, 58, 72, -24,
   20, -55, 24, -45, 1, -95, -48, -10,
   -9, -34, -50, -23, 6, -60, 18, -20,
   15, 46, -100, 34, -69, -43, -46, -17,
   -8, -27, -88, 50, -42, 6, -19, -31,
   18, 72, -23, 69, -27, -58, -11, 35,
   -15, 15, -25, -83, -21, -23, 36, 71,
   2, 12, 63, 47, -1, 77, 50, 13,
   58, -42, -31, -84, -87, 74, -56, -99,
   -79, 7, 9, -71, 49, -11, -7, 20,
   23, -27, -60, 29, 19, 127, 93, -108,
   -35, 10, -30, -43, -5, 35, -45, 3,
   8, 53, 21, 28, 57, 10, 36, -7,
   4, 11, 21, -7, -53, -21, 27, 3,
   -68, -3, -36, 9, 21, -47, 3, 41,
   62, 28, 40, 59, -32, -20, -30, 49,
   44, -33, -5, 6, -39, 23, -80, 17,
   -19, 33, 1, 11, -51, 53, -101, -65,
   -3, -80, -29, -20, 79, 76, -50, -11,
   10, -46, -27, 117, 82, -36, 75, 45,
   56, 7, -11, 18, 13, 12, -41, 24,
   54, 19, 55, 40, 36, 36, 0, -24,
   -14, 2, 12, 33, -52, -55, -29, 2,
   10, 61, -8, -26, -14, -56, -8, 68,
   16, -44, -72, -65, -18, -80, 31, 21,
   -4, -55, 3, -8, 50, 49, -29, -79,
   -38, -33, -17, 33, -69, 3, -120, 2,
   -62, -38, -128, -124, 28, -1, -78, 40,
   -105, -86, 24, 45, -88, -14, 99, 106,
   67, 29, 39, -43, -10, 43, -40, 10,
   -53, 23, -27, 25, -7, 66, -42, 13,
   31, -28, -71, -43, 15, 25, 34, 40,
   -52, -38, 36, 34, -12, 42, 11, -54,
   -49, -1, 31, 8, 22, 49, 8, 8,
   -10, 27, 47, -13, 25, 38, -5, 29,
   44, 64, 19, -41, 48, -43, -31, 25,
   -46, 97, -15, -119, 59, 27, -46, 25,
   57, 67, -18, -26, -17, 18, -39, 100,
   45, -5, 63, -5, -3, 14, 47, 15,
   7, -16, -35, 23, 62, -85, -30, 78,
   18, -27, 5, -42, 30, -63, 39, 17,
   -62, -83, 26, -18, 59, 62, 46, -35,
   67, 16, 64, -35, 19, 70, -65, -1,
   -74, 57, -78, -31, 20, 30, -36, 44,
   -21, 86, 16, -86, -26, -105, -68, -45,
   -40, 24, 56, 13, 99, 94, -17, -65,
   22, -83, 22, -47, 114, -66, 29, 30,
   37, 38, 10, 37, 26, 37, -34, -40,
   -17, -20, 73, 79, 52, 107, -75, 55,
   -8, 3, -4, 32, -12, -27, 17, 90,
   28, -16, 38, 21, -17, -22, -80, 78,
   -101, 50, -44, 12, -27, -4, 85, 69,
   17, -1, 56, -13, -26, -26, 65, -71,
   -60, -41, -65, 2, 31, 34, 56, -123,
   49, 4, 38, 6, -6, 35, -21, -128,
   -44, -50, -1, -21, 54, 90, 120, -29,
   18, -6, 67, 32, 91, 52, 58, -3,
   21, -43, 12, -34, 70, -28, 12, -55,
   48, 73, 9, 30, -72, -19, 76, -49,
   -5, -31, 38, 60, 7, -11, 33, 27,
   -74, -12, -35, -37, -37, 10, 28, 48,
   30, -5, 14, -21, 33, 0, -53, 42,
   -30, 56, 79, 1, 1, -37, 70, -41,
   2, -39, 9, -52, -51, -4, 6, -44,
   -31, 112, 8, -65, 3, -85, -128, -51,
   -43, 24, -4, 43, 11, -57, -54, -17,
   74, -66, -71, -64, -90, -44, -70, -94,
   -4, -72, -20, -25, 92, -80, -54, 45,
   44, -25, 14, 15, 17, 60, -22, 24,
   -17, 33, -19, -13, -79, -10, -17, -56,
   20, -34, -23, 62, -41, 27, 21, 39,
   -72, -2, 31, 58, 30, -92, 16, -11,
   -47, 115, 18, 29, 6, -7, -44, -107,
   -24, 18, 16, -63, -39, -80, -128, 115,
   7, -55, -82, -68, -36, -25, -14, -10,
   64, -42, -102, -28, -4, -62, -23, 7,
   9, -94, -55, -38, 87, -57, 8, -34,
   37, 3, -1, 63, -43, 59, -47, 25,
   -45, 36, -73, -44, 18, -13, -9, 69,
   -29, 66, -20, 61, 4, 40, -26, 7,
   -17, -127, -57, -21, -80, 120, -103, -59,
   -128, -48, -128, -95, -17, -17, 21, -35,
   7, -86, -40, -42, -100, 115, 74, -128,
   77, -41, -24, 19, -25, 17, -37, -29,
   -73, -7, -16, 43, 23, 73, 45, 47,
   -5, 11, -41, -2, -111, 28, 118, -72,
   7, -40, -12, 44, 33, -38, 42, 13,
   -36, 29, 58, -33, -9, 61, 8, 8,
   -32, 16, -64, 50, -57, -13, -52, 55,
   -69, -93, -51, 24, -45, -13, -40, 46,
   -71, -1, 49, -21, -68, 63, 102, -128,
   52, -10, 80, -60, 112, -46, -72, -36,
   -33, 44, -9, 68, 24, -47, -61, -74,
   -28, 23, -83, -40, -63, -22, 35, -20,
   -9, -41, -2, 52, -53, 46, 64, 41,
   32, 21, 24, 57, -35, 18, -3, 44,
   -64, -40, -44, -31, 31, 6, -5, -20,
   38, -14, 64, 54, 55, 63, 7, -43,
   68, 74, 71, 91, -7, -108, 4, 120,
   -85, 83, -32, -20, 37, 52, -39, -44,
   38, 95, 33, -11, 43, -75, -118, 110,
   -89, -69, -23, -74, -53, -24, -42, -80,
   23, -75, -72, -31, -68, -47, -26, -43,
   -17, -62, -82, -47, 16, -111, 26, -48,
   -50, 46, 50, -47, -28, -17, -54, -53,
   -60, -22, -57, -54, -71, 15, -52, -28,
   27, 5, -50, -10, -40, 40, 68, 9,
   14, 23, 119, 41, 103, -128, 25, 42,
   47, 96, 25, 37, 1, 36, 90, 58,
   109, 98, 120, -19, -22, -26, -38, 96,
   -43, -14, -33, 26, -83, -3, -8, 19,
   85, 88, -84, -15, -24, -92, -8, -77,
   55, 37, -79, -51, 88, -28, 21, -60,
   -16, 19, -24, -55, -18, 10, 46, -33,
   -40, 33, 41, -56, -69, -1, 13, -53,
   -31, 31, -38, -39, 49, -11, 35, -45,
   27, -33, -36, 40, 74, 59, -90, -47,
   -21, 17, -74, -48, -20, -37, -31, -16,
   -14, 33, 25, 56, -51, 91, 24, 48,
   30, -25, -59, -7, 14, 36, 43, 20,
   49, -61, 53, 30, 11, 54, 3, -9,
   -61, 31, 12, -52, -71, -53, 67, -42,
   6, 48, 16, -50, 2, -10, -33, -43,
   -46, 48, 12, 49, -32, 46, -22, -4,
   -9, 40, 7, 25, 19, -67, -112, -5,
   16, 36, 11, 16, -15, 36, -36, 26,
   45, -10, -59, -39, -19, -128, -128, -28,
   -4, -49, -71, -107, -87, 18, 2, -7,
   22, -67, -47, -18, -35, 29, -15, -73,
   -36, 17, 22, 26, 36, 20, -10, -6,
   -4, 5, 64, 31, -40, -18, -48, 29,
   28, 32, 35, 50, -41, -24, -55, 33,
   10, -35, -35, -31, 58, 4, 15, -21,
   4, -4, 9, 16, -26, 59, -80, -76,
   -54, -3, 62, -19, -64, -60, 1, -29,
   -2, -13, 82, 37, -63, 34, -34, -17,
   19, -96, 59, -51, 26, 64, 34, -5,
   -55, 36, -43, -49, 78, -2, 97, 30,
   -31, 24, 14, -14, -20, -22, 53, 6,
   -100, 59, -29, 60, -19, 99, 86, 16,
   -41, 73, 25, 90, -84, -1, -41, 13,
   -128, -50, -110, -78, 3, -99, -5, -41,
   31, 29, 86, 16, 127, -25, 46, -72,
   -33, -94, 77, -37, -31, -2, 46, 70,
   83, 21, 15, -48, 1, -20, -46, -41,
   -21, -53, 56, -123, -105, 42, -49, -80,
   54, 29, 54, 16, -59, 127, -58, 9,
   8, -15, 6, -29, -2, -8, -12, 67,
   55, -14, -29, -64, 0, -80, -46, 53,
   32, -28, -7, -54, 45, -5, -28, -56,
   -36, 33, -15, -4, 47, 50, 28, 40,
   -85, 24, -46, -21, -14, -30, 5, -63,
   29, 54, 118, 36, 80, -128, 39, 22,
   -4, -20, 120, 32, -6, 5, 78, 24,
   108, 17, 25, 96, 41, -80, -69, 1,
   -10, 6, 53, 38, -19, -69, -69, 76,
   96, 109, 30, -58, 17, 36, 50, -37,
   22, 14, -30, 4, 76, -29, -48, 13,
   8, -70, -65, -57, -15, -72, 6, -70,
   78, -39, -27, -18, -77, 52, -3, 22,
   -70, 6, 17, -16, -47, -11, -10, 53,
   -9, 17, -70, -8, -19, 10, -107, 44,
   70, -44, 33, 43, -29, -29, -113, 76,
   -6, 4, -121, 8, 14, -40, -96, -59,
   -58, -59, -3, -41, -19, 29, -26, -13,
   -5, -78, -9, 29, -89, -9, -38, -39,
   -37, -1, -12, -47, 3, 21, 29, -57,
   24, 10, 84, 81, 8, -21, -43, 73,
   26, -26, 42, 4, 40, -7, 37, -37,
   -8, -64, 37, 78, -7, 51, 67, -6,
   -6, 47, -67, 25, -95, 5, -16, 32,
   -8, 28, 94, -6, 46, -7, -31, -22,
   -6, -12, -104, 6, 6, -15, -69, 26,
   -24, 37, -59, -64, -68, 42, 9, -27,
   43, 74, -38, 2, -4, 3, 34, -70,
   -43, -63, 42, -15, 13, -24, -1, -54,
   63, 15, 49, 10, -67, -24, 57, -11,
   -16, -66, 33, 18, -58, 5, 48, 36,
   -44, 13, 47, 16, -32, 21, 46, -63,
   67, 72, 39, 110, 86, 16, 120, 65,
   23, 36, 127, 103, -29, 127, 127, 35,
   -7, 127, 60, 7, 40, 9, -59, 44,
   -38, 32, 30, 69, -8, 16, 34, 73,
   1, 69, -15, 15, 35, -70, 12, 28,
   -12, 17, -1, 75, -19, 11, 47, -4,
   -6, -77, 17, -76, 36, 54, -21, 44,
   29, 10, -27, -21, -25, 0, 32, -61,
   -22, 19, 43, -19, -38, -6, -27, 58,
   -34, -45, 41, -100, -26, -3, -69, -73,
   -76, -61, -14, -5, -25, 12, -47, -128,
   -30, -104, -30, -106, 54, -44, -39, -66,
   -55, -47, -18, -53, -89, -83, 6, -88,
   -66, -30, -125, -74, -77, -9, 2, -9,
   -10, -49, -31, -39, 44, 101, 80, 20,
   -27, 70, 100, 88, -118, 53, -112, 22,
   -62, -118, -75, -21, -9, -89, 5, -20,
   109, -78, 88, 37, 94, 43, 102, -46,
   62, 36, -44, -63, -22, 21, 32, 55,
   -47, -11, 13, 32, 30, -43, 41, 8,
   81, 38, 88, 41, -82, 83, 43, -56,
   -9, 11, 34, 76, 65, -37, -17, 71,
   -45, 30, 51, -3, 43, 21, 45, -20,
   37, 92, 40, 21, -68, 127, 23, 63,
   -79, 9, -50, -13, 53, -77, 69, -55,
   21, 28, 30, -20, 6, -6, -101, -35,
   -60, 37, -51, 21, -47, -20, 26, 75,
   -3, -23, 41, 24, 86, -31, 118, -6,
   42, 24, 127, 127, -1, -3, 74, 54,
   -48, 26, 20, -51, 54, -33, -58, -60,
   -58, 10, -1, -16, 44, 13, 6, -21,
   35, 34, -26, -60, -42, -43, -61, -71,
   -52, -2, 38, 26, 19, -70, -39, 8,
   13, -63, -23, -41, 57, 21, -38, 34,
   -27, -4, 19, 50, -9, -33, 6, -53,
   -40, -56, 43, 43, 45, 13, -4, -29
};

static const rnn_weight vad_gru_recurrent_weights[1728] = {
   -47, 83, -16, 88, 122, -91, 13, 56,
   119, 94, 54, -39, 9, 22, 107, 7,
   127, -1, 40, -72, 0, 82, 58, 53,
   8, 54, 24, 65, 42, 26, 29, -25,
   -10, 28, 12, 97, -40, -9, -22, 18,
   4, 9, 48, 68, 56, 68, 22, 51,
   -3, 5, 63, -15, -21, -4, -56, 87,
   17, -36, -9, 3, 26, -15, 38, 57,
   7, -36, 61, 51, -5, 4, -54, 30,
   17, 31, -12, -2, 22, 34, -71, 43,
   -42, -8, -108, -108, 56, -57, -52, 47,
   -4, -17, -93, 64, -62, 76, 78, -18,
   14, 13, -52, -29, 35, -56, -34, 27,
   -46, -17, 63, 24, 6, 11, 1, -27,
   35, -2, 65, -30, -7, 3, 58, 8,
   33, 3, 17, 66, -104, 59, -56, 121,
   4, -58, -15, -66, 72, -20, 35, 43,
   -30, -109, 56, 53, -4, 61, -15, -53,
   22, 35, 33, 73, 9, -65, -84, 93,
   -26, 44, -69, -115, 37, -12, -11, -12,
   98, 75, 23, -21, -74, 65, 117, 55,
   -31, -22, -21, -58, -20, 45, 46, -20,
   -61, 27, 0, 13, 42, 68, 67, 26,
   74, 21, 41, -64, -29, 22, 53, 30,
   4, 42, 15, 61, -3, 59, -33, 64,
   13, -31, -36, -15, 81, -87, 57, 100,
   82, -88, 1, 80, -10, 104, -36, -1,
   -65, -11, -75, -27, -68, -11, -109, -100,
   -13, -13, -126, -128, -3, -117, -47, 62,
   -52, -22, -94, 45, -72, 77, 52, -40,
   10, 1, -12, -25, -15, 7, 12, 69,
   -95, -11, 48, 38, -49, 53, 75, 47,
   -34, 27, -4, -25, -73, 15, 65, -6,
   68, 16, 79, -15, -21, 33, -30, 90,
   -17, 24, 19, 6, 53, -80, 127, -20,
   14, -94, 9, 64, 11, 61, -31, -36,
   -43, -100, -37, -55, -15, 54, 76, -47,
   28, -57, 53, -19, 35, -17, 60, 25,
   -128, -23, -10, -38, 47, -67, 0, -118,
   15, -74, -39, -20, 38, 14, -33, -14,
   11, -13, -52, 26, 32, 23, 18, 74,
   -27, -21, -35, 17, -10, -35, 53, -7,
   -56, -46, -54, -8, 16, -22, -22, -27,
   -19, 82, 33, 18, -61, 23, -21, -69,
   -18, 38, -80, -81, 2, -110, -29, 68,
   -114, -51, -100, 11, 7, 39, -9, -53,
   45, 12, -116, -73, -78, -102, -74, -56,
   -48, -21, -120, -119, -116, -43, -38, -61,
   20, -51, -66, -28, 34, 0, -21, -120,
   -126, -55, 38, -44, -49, 15, 72, 43,
   -107, -9, -15, -52, -5, 6, 19, -35,
   44, 42, 1, 120, -73, -21, -24, 78,
   -89, -86, -63, -75, 58, -56, 66, 71,
   62, -34, 40, 20, 56, -38, -39, -39,
   -40, -49, -70, -86, -58, 28, -5, -15,
   12, -56, 61, 68, -48, 11, 15, -41,
   -73, -128, -50, -51, 79, 25, 47, 15,
   7, 0, -51, 33, -6, -21, 34, -16,
   -17, -50, 55, 11, 57, 0, -7, 79,
   -28, 31, 4, 48, -57, 5, -55, -43,
   9, -54, -84, -65, 44, -9, -24, -44,
   82, 64, 82, 77, -21, 44, -33, 8,
   -57, 1, -57, -70, -91, -105, -28, 9,
   54, -30, -61, -9, 3, 20, -40, 15,
   12, -63, -20, -48, 29, 19, 65, 88,
   34, -47, -43, -38, -71, 104, 52, -64,
   29, -11, 54, 27, 14, -12, 2, 81,
   -93, 32, 29, 95, 56, 14, -9, -32,
   4, -4, -41, 34, -37, 74, 96, 35,
   27, 31, 9, 48, -15, 2, 49, 69,
   11, 23, -16, 57, -20, 1, 51, 42,
   25, -54, 22, 56, -27, 30, 20, 17,
   -46, -56, -69, -44, -48, 57, -25, -30,
   -33, -104, 89, 18, 6, 18, 32, 56,
   58, -107, 68, -106, 94, 77, 119, -3,
   -14, 64, 50, 38, 52, 45, 35, 105,
   5, -1, 119, 77, 0, 73, 15, 14,
   16, 67, 54, 44, 37, 31, 9, 69,
   18, -76, -56, -77, 24, -71, 24, -97,
   70, 33, 17, 57, -18, 11, -8, -76,
   -21, 85, -11, -68, -70, -17, -71, 79,
   -18, 50, 25, 27, -24, 40, 119, -20,
   108, -75, 29, 53, -38, 22, -100, 39,
   -63, -22, 94, -1, -11, -42, -40, 5,
   18, 15, 14, -1, 5, 86, 20, -30,
   65, -42, -3, 1, 31, 15, -14, 45,
   -34, 23, -40, -26, -33, -43, -45, 0,
   -33, -14, -34, -1, 59, 67, -8, -71,
   23, 50, 34, -9, -14, -43, -42, -27,
   -100, 74, -18, -120, -44, -73, -128, 59,
   -75, -65, -15, -109, -105, 87, 32, -128,
   10, -96, 29, 32, -35, -20, -102, -25,
   -119, -92, -34, -54, 49, -22, 80, -34,
   5, 57, 9, 4, 59, 26, 44, -27,
   2, 1, 30, -2, 14, 46, -85, 59,
   -22, -38, -14, 33, -14, 37, -47, -15,
   3, -44, -108, -90, 7, -23, 59, -59,
   35, 77, 32, 44, -55, -2, -10, 49,
   -118, 2, -38, -19, -14, -27, -9, 37,
   -20, -38, -87, -96, -52, 7, 8, -76,
   15, -79, 47, 33, -10, -11, -116, -78,
   -71, -83, -77, 26, 107, -21, 15, 38,
   -61, -75, -31, 2, -50, 1, -23, 17,
   81, 19, -28, -50, -43, -55, -62, -28,
   -80, -73, -25, -35, -20, -25, -65, -60,
   -31, -85, -79, -45, 75, -117, 107, -11,
   115, 54, 15, 75, -80, 34, -85, -1,
   -92, 36, -46, -51, -2, -68, -9, 76,
   -40, 58, -23, 72, 32, 11, -22, 78,
   70, 96, -112, -103, 36, 8, -89, -14,
   58, 20, 3, -64, -66, 100, 127, 46,
   62, 0, 45, -37, 49, 28, 2, 4,
   -20, -57, 64, 44, 73, 34, 27, 40,
   47, -10, -9, -8, -28, 41, 18, -98,
   67, 43, 32, 6, -36, 37, -46, 65,
   0, 1, -60, -12, 16, -22, 63, 4,
   26, -78, 83, 45, -11, 53, -24, 24,
   -27, 48, 46, 47, -9, 3, 49, 86,
   47, 6, 74, 38, -29, 1, -49, -42,
   -5, -18, 7, -94, 52, -43, -33, 37,
   -32, -18, -37, 30, -57, 56, -85, -82,
   52, 28, -54, -54, 11, -42, -128, 22,
   -53, -24, -57, -4, -16, -11, -60, 6,
   12, -85, -54, -69, 44, -57, 66, -47,
   1, 37, 51, 65, -21, -55, -89, -75,
   -38, 22, -51, 2, -51, -9, 3, 6,
   23, -8, -11, 22, 63, -52, -127, 31,
   0, -4, -46, -10, -29, -24, 127, 34,
   100, 13, 18, -60, -31, 88, 77, 66,
   -19, 59, 33, -61, 81, 61, 35, 35,
   21, 53, 79, 50, -6, 16, 75, -10,
   53, 64, 90, 33, -34, 53, 9, -21,
   78, -10, 16, 28, -43, -42, 24, 62,
   36, 12, -30, 25, 33, -32, 38, -26,
   37, -82, -13, 15, -53, -5, 31, 47,
   18, 46, -42, -1, 32, 22, 49, -12,
   56, 28, 58, 73, 45, 26, 24, 17,
   28, 53, 12, -1, -51, 40, 72, 2,
   20, 37, 50, 29, 110, 27, 120, 80,
   -69, 20, 64, 92, 40, 83, 28, 69,
   -14, 25, 43, 45, -46, -63, -44, 97,
   22, 64, -14, 5, -51, -9, -67, 83,
   62, -17, -59, 23, 54, 4, 4, 2,
   -13, 13, 37, 13, -15, -26, 9, -29,
   -1, 50, -95, -1, -67, -7, -106, 30,
   -6, -108, -116, -111, -11, -49, -6, -29,
   31, 47, -128, -47, 19, 22, 44, 17,
   -71, 30, -12, -9, -18, -36, -18, 4,
   44, 29, -10, -33, -13, -12, 14, -59,
   17, -56, -43, -59, 1, 61, 73, 19,
   18, 75, 35, 43, -53, -2, 10, 55,
   -55, -62, 23, 24, 47, 6, 82, 3,
   119, -66, 3, 50, 46, 44, 60, 9,
   15, -29, 39, -81, -19, 36, 92, -30,
   17, -47, 74, 127, -11, 1, -60, -27,
   -85, 16, 2, -22, 15, -27, 28, 17,
   32, 73, -67, 21, 3, -16, -1, 39,
   6, 12, 35, 33, 7, -15, 20, 50,
   -62, 59, -14, 8, 5, 7, -66, 16,
   -97, 19, -2, -52, 5, -28, 36, 16,
   -33, -4, -1, -29, -65, -28, -38, 22,
   -41, -14, -28, -41, 23, -35, -53, 37,
   52, 26, 29, 34, -22, -7, -39, 34,
   21, 39, -44, 121, 83, -53, 70, 110,
   90, 22, 20, 55, -47, 106, 96, -38,
   39, 47, -27, 38, 127, -30, 37, 67,
   -35, 18, 66, 10, 49, 81, 69, 0,
   16, 31, 37, 34, 21, 21, 65, 53,
   16, 14, 106, 52, -28, -30, -79, 45,
   27, -63, -65, 19, 66, 14, 56, 35,
   35, -63, -17, 43, 53, 42, 23, 18,
   -79, 23, -54, -28, 50, -54, -75, 81,
   56, -27, -58, -128, -2, -6, 63, 66,
   39, 22, 25, -77, -97, 112, 65, -28,
   10, 77, 70, -5, 32, -31, 57, 4,
   -82, 33, -11, 3, -6, -15, -18, 36,
   96, -30, 10, 34, 39, 28, 44, 31,
   77, 16, 33, 26, -8, 49, -63, 85,
   -28, -72, -17, -58, -10, -4, 0, -18,
   68, -14, 1, 25, 62, 19, 51, -29,
   -24, -85, -26, -38, -36, -54, -101, 79,
   -101, 10, -99, -29, -11, -61, -14, -71,
   -54, 26, -40, 109, -81, -16, -33, -36,
   -31, 58, -8, -3, 14, -57, -4, -5,
   26, 27, -68, 4, -35, -13, 22, -41,
   11, -27, -34, 49, 5, 25, 32, -34,
   20, 41, 46, 85, -21, 33, -70, 32,
   -77, -33, -60, -37, 8, -88, 9, 56,
   84, -61, 18, 77, 23, 51, 43, -107,
   -60, -57, -52, -49, -47, -124, -54, 63,
   -16, 13, -27, -90, -27, -32, 96, 7,
   108, 20, -23, -87, -47, -1, -28, 18,
   -107, -19, -50, -15, -56, -128, -116, -34,
   14, -14, -116, -28, -47, -30, -6, -124,
   70, 28, -43, -108, -35, 66, 23, -25,
   -15, -6, -26, -12, 92, -72, 24, 9,
   -52, -15, 26, 89, -8, 49, 32, -8,
   24, -7, 4, -20, 1, 6, 112, -15,
   -61, -124, -117, -47, -13, -120, -110, 3,
   -85, 43, -71, -56, -79, -13, 62, -74,
   -2, -28, -31, -59, -48, 26, 119, -82,
   -71, 1, 8, 36, -62, 11, -16, 16,
   90, 22, -34, -17, 3, -74, -117, -32,
   8, 21, -45, -31, 51, -5, -13, 27,
   -52, -19, 1, 24, 14, -60, 33, 8,
   2, -13, 93, 66, -67, 54, 16, -18,
   51, 63, -18, -10, 47, 52, 117, 34,
   -76, -46, -21, -56, -34, 56, 51, -64,
   39, -66, 86, 35, -88, 20, 21, -22,
   -100, -84, -30, 2, 3, -41, -41, -39,
   27, -11, -49, -15, -48, 3, -38, 39,
   85, -52, -64, -61, -13, 24, -5, -18,
   14, -8, -23, 48, 4, -20, -31, 45,
   -61, -33, -74, -96, 91, -73, 79, 0,
   33, 61, 25, 69, -28, 94, -63, -61,
   -43, 20, -14, -77, -66, -9, 3, 119
};

static const rnn_weight vad_gru_bias[144] = {
   -14, -39, -45, -89, -50, 105, 24, -91,
   -5, -105, 30, 49, 16, -58, 1, 34,
   -38, -54, -67, 15, -12, 101, 127, -14,
   50, 35, 58, 60, 76, 41, 69, 77,
   14, 41, 68, 75, 53, 61, 56, 45,
   51, 91, 44, 66, 9, 53, 49, 57,
   6, 6, 2, -3, -18, -21, 5, 23,
   -12, -14, 4, 4, 14, -5, 16, 8,
   31, -18, 10, 3, 15, 19, 17, -3,
   -14, -39, -45, -89, -50, 105, 24, -91,
   -5, -105, 30, 49, 16, -58, 1, 34,
   -38, -54, -67, 15, -12, 101, 127, -14,
   50, 35, 58, 60, 76, 41, 69, 77,
   14, 41, 68, 75, 53, 61, 56, 45,
   51, 91, 44, 66, 9, 53, 49, 57,
   3, 12, 2, -3, -22, -17, -2, 22,
   6, -15, -2, 1, 16, -2, 19, 16,
   20, -22, 8, 5, 18, 23, 23, -6
};

const GRULayer vad_gru = {
   vad_gru_bias,
   vad_gru_weights,
   vad_gru_recurrent_weights,
   24, 24.0, ACTIVATION_TANH
};

static const rnn_weight noise_gru_weights[12960] = {
   -62, -15, -29, -22, -10, -25, 11, -20,
   41, 49, -37, -2, -16, -76, 12, 17,
   12, 17, 12, -32, 7, -29, -10, -31,
   -36, 7, -45, 22, 16, -25, 14, 14,
   -32, -45, -29, 11, 25, 12, -21, -18,
   2, -30, 7, 1, 34, 7, -14, 45,
   41, -9, 34, 13, 31, 17, -7, -17,
   13, 17, 8, -23, -37, -45, 38, -50,
   6, 28, -23, 38, 7, 2, -4, -31,
   28, -12, -4, -12, 26, -4, -9, 30,
   15, -45, 14, -28, -15, -6, -15, 17,
   -25, -27, 45, -29, -3, 35, -30, -24,
   -28, -14, -4, -17, -27, -21, 28, 30,
   -9, -6, -10, -11, 17, -1, -36, -2,
   -30, -2, -27, 13, -20, 35, 25, -11,
   -27, 18, 30, 3, 6, 19, -16, 37,
   -16, -36, 26, -7, 40, -5, 7, 13,
   39, -32, -32, 2, 25, 0, -14, -9,
   -1, 41, 31, 39, -49, -20, 10, 21,
   -19, -14, 16, -25, -32, 34, 27, 14,
   8, 21, 15, -1, -61, -7, -5, 21,
   22, 43, -31, -3, 43, -16, -22, -26,
   -1, 54, 9, -3, 13, -10, 18, 12,
   11, 22, -16, 42, 23, 4, 13, 14,
   -22, -8, 9, -23, -23, -10, -43, -28,
   34, 3, 18, -5, -21, 27, -10, 23,
   -46, -31, 34, 34, -1, -32, 16, 0,
   -44, 37, -46, 32, -28, 42, -28, 8,
   7, -15, 36, 9, -34, -33, 27, 19,
   12, -41, 28, -13, 12, 5, -47, -6,
   -5, -5, -40, -26, 9, 5, -32, 41,
   22, -10, 19, -4, 25, 11, 31, -18,
   -15, -31, -30, 21, 21, -24, -7, 26,
   12, 1, -5, 35, 8, -6, 43, -30,
   19, -3, 19, -25, 13, -15, 14, 33,
   -8, -42, 37, 24, 27, -31, 23, -28,
   -32, 50, 6, -13, -11, 20, -32, 39,
   -27, 34, 0, -35, -5, -30, 0, -14,
   19, -25, 11, 31, 41, -43, 44, 17,
   29, 13, 32, -22, -61, 22, 27, 48,
   -36, 2, -25, -56, -66, 16, -44, -4,
   -32, -34, 1, -11, -7, 12, -23, -16,
   -30, 44, -50, -4, -46, -42, 7, 4,
   42, 28, -27, 30, -18, -26, 26, 3,
   45, 10, 2, 26, 15, 13, -21, 47,
   -19, 6, 23, 4, -9, -41, -16, 2,
   -9, -6, 37, -24, 29, 53, 9, 3,
   -1, -5, 4, 38, -4, 17, -30, 44,
   -4, -29, 22, 4, 3, -37, 24, -30,
   8, -20, 21, 24, 4, 11, -4, -26,
   -30, 32, 19, -3, -26, -29, 9, -7,
   19, 9, -4, 20, 6, -13, 16, 5,
   27, 3, -22, -18, 6, 17, -36, 4,
   -28, -5, -38, -25, -3, 42, 0, 17,
   33, 8, 45, 8, 27, 41, 54, 48,
   -60, -65, -17, 6, -20, 38, 54, -44,
   4, -29, 45, -16, 27, 35, -16, -8,
   5, 19, 17, 14, 46, -1, -9, 80,
   -42, -1, 12, 12, -1, 3, -16, -16,
   -36, -14, 40, 34, -42, 13, 12, -35,
   -44, -7, -29, -17, 18, 29, -40, -37,
   35, -22, 27, -20, 1, 19, 32, -8,
   28, -1, 35, -12, -33, 46, 43, 22,
   11, -34, -32, 42, -2, -53, 21, -19,
   50, 2, -31, 6, 9, -38, 3, -26,
   -34, -23, -22, -19, 19, 15, -32, 42,
   -44, -22, -13, -6, 2, 20, -19, 26,
   -7, -26, 3, 25, 9, 12, -9, 31,
   38, 2, 35, 6, -18, 8, 21, -37,
   -13, 22, 33, -32, -3, -29, 22, -16,
   -3, -9, 11, 30, -1, -12, -4, 36,
   -6, 41, 2, -22, 1, -9, 4, -32,
   51, -60, 12, -11, 20, -27, -23, -65,
   -38, -30, 15, 25, 40, 39, -15, 33,
   -11, 23, 7, -27, -1, 28, 37, -34,
   18, 16, 0, -17, 14, 24, -9, 16,
   62, 36, -21, 15, -26, 46, -9, -11,
   30, -6, -57, 41, 6, 8, -27, -12,
   -45, 18, -5, 8, 8, 16, -20, -24,
   -10, 3, 28, -8, 2, -45, -6, 2,
   28, 7, 19, 33, 6, 23, -14, -17,
   -30, 27, -55, 36, 15, -20, 22, -39,
   -3, 46, -44, -15, 13, -16, -14, -93,
   37, 0, -73, 9, -42, 9, 29, 32,
   -53, -21, -56, 13, 0, -10, 5, 41,
   -1, 29, -4, 19, 32, -15, -10, 2,
   -8, 5, -31, 9, 10, -23, -31, 19,
   9, 62, 1, -4, 23, -11, -20, -42,
   7, -11, -5, 39, 4, 17, -42, 55,
   58, 1, 42, -24, -38, 26, 22, 6,
   5, 8, -93, -1, 39, -42, 18, -2,
   1, 29, 41, -57, -27, -11, -8, 3,
   -37, -27, 13, -6, 26, -23, -52, 30,
   -7, 23, 3, 11, -74, -4, -19, -33,
   36, -1, 58, 28, -17, 1, -19, 28,
   10, -3, -54, -22, -1, -55, -29, 55,
   -33, -14, -27, 24, 40, 45, 23, -27,
   48, -56, -49, -4, -8, -27, -6, 30,
   10, -27, 4, 16, -21, 14, -11, 28,
   13, -26, -2, 28, -1, -1, 29, -13,
   24, -72, 1, -2, 26, 3, -32, 35,
   -12, 31, 10, -23, 10, 20, 0, -40,
   -1, 39, 20, -5, -13, 1, 31, -10,
   -25, 24, 7, -37, -27, -14, 37, 64,
   -3, 34, -14, 3, 10, -2, -44, -22,
   -23, -35, -10, 29, -47, 42, -14, -9,
   36, 1, -21, 4, -31, 28, 18, 25,
   23, 17, 18, 46, 6, 16, 52, -17,
   23, 26, -36, -7, -61, 13, -27, -24,
   -50, -19, -8, -39, 42, -15, -60, 39,
   -13, 9, 40, -20, 20, 27, 30, -70,
   43, -9, 12, 17, -51, -26, -69, 15,
   -8, 19, -53, 0, -27, -27, -100, -48,
   -41, 42, -65, -12, -33, 38, -14, 34,
   29, -48, -23, 1, 0, -17, 26, -18,
   25, -24, 0, 32, -27, 2, 25, 54,
   14, 33, -24, -26, 35, -44, -13, 39,
   -27, 34, 29, 26, 16, -46, -4, 16,
   25, -3, 12, 26, 21, -88, -5, -13,
   -61, 6, -14, -47, -3, -45, -4, -45,
   7, -28, -10, -15, 11, 24, -19, -38,
   -43, 5, -42, 2, 10, 37, -14, -4,
   -17, -25, -6, 16, 19, 16, 15, 33,
   -6, -38, 3, -10, -18, 1, -26, -55,
   -31, 5, -3, -31, 8, -54, 34, 22,
   28, -37, -35, 28, 39, 35, 14, 10,
   -58, -44, -18, -15, 34, -25, 12, -27,
   -7, 23, -26, 5, 0, 13, 19, -10,
   25, 18, -16, -2, -8, -60, 7, 58,
   -6, 16, 0, 11, 2, -12, -6, 5,
   -40, 0, 87, 33, -3, -17, -10, 5,
   -3, 33, -2, -39, -27, -3, -37, -49,
   50, -9, 39, 14, 49, -4, 13, 8,
   21, 22, 4, -3, -42, -49, -14, -12,
   33, -11, -44, 25, -56, -16, -15, -2,
   -3, -35, -6, -27, -6, 30, 27, 33,
   -56, -20, -26, -24, -9, -25, -4, 9,
   -11, 15, -6, 7, 18, 26, 28, 14,
   -2, -47, 3, -38, -24, 40, 15, -32,
   -10, -26, 16, -5, 19, 25, 2, 36,
   16, -3, -41, -18, 37, -29, 32, -22,
   -16, -10, -3, -18, -5, 9, -16, -1,
   -43, 14, 17, 25, -41, -9, 20, 8,
   -30, 22, 12, -36, -34, 4, -3, -2,
   -7, -41, -7, 11, -23, -31, -10, -4,
   3, 6, -27, -13, -7, 12, 14, 50,
   -12, -32, -13, -29, 36, -7, 19, -45,
   -22, -38, -39, -28, -20, 10, 13, 18,
   3, -1, -21, 4, 20, 11, 38, -16,
   25, 30, 30, 18, 1, -4, 6, -47,
   26, 2, -25, 32, 19, -31, 49, -31,
   -30, -19, 8, 22, 7, -40, 11, 37,
   -19, -53, 24, 17, -16, -7, -41, -12,
   41, -19, 11, -50, 3, 4, 16, 6,
   -2, -46, -12, -2, -9, -32, -12, -18,
   15, -8, -2, 18, 16, 23, 30, -4,
   3, 6, -30, 13, -30, 30, 13, -31,
   -15, 13, 2, 14, -30, 10, -10, -18,
   40, 2, -17, -22, 2, -47, -6, 2,
   20, -12, -2, -31, 7, -28, -37, 31,
   -15, 11, 39, -1, -26, -29, 25, -13,
   11, -17, 11, 7, -34, 14, -30, 34,
   30, -8, 0, 0, -45, -31, 24, -19,
   6, -24, 88, 61, -23, -31, -22, 40,
   -12, 11, -21, 34, -60, -2, -19, 49,
   -26, 70, -20, 16, -38, 32, -19, 22,
   6, 32, -33, 15, 43, 22, 25, 28,
   0, 27, 39, 2, 73, 30, 17, -13,
   6, 19, 48, 10, -60, -15, -20, 28,
   45, 31, 32, 13, 3, -21, 15, 28,
   7, 28, 19, -24, -11, -15, -4, -3,
   -13, -14, 46, -18, -32, 12, 38, -1,
   27, 34, 9, 28, 32, -21, -24, -11,
   -32, 12, 12, 6, -22, -33, -32, 5,
   20, -24, -34, -37, -4, -11, -24, -25,
   3, -7, -36, -28, -11, -35, 1, 39,
   -13, -3, 23, -45, 20, 0, -7, -21,
   -10, -17, -14, 4, 18, -30, 6, -26,
   13, -3, 24, 29, -8, 1, -2, -8,
   -3, -19, -19, -7, 25, -39, 12, -26,
   -32, -13, -37, -51, -43, -31, -12, 9,
   -35, 33, -103, 31, 25, -6, -28, 35,
   9, 1, 3, -17, -43, -19, 10, 20,
   -28, 67, 36, -17, -72, 23, -44, 55,
   -2, -3, -37, 37, 25, -33, 50, -18,
   -16, -20, -3, -33, -4, 13, -44, 20,
   44, -18, -37, -28, 4, -7, -4, -3,
   16, 1, -19, 14, -29, -17, 20, 17,
   -39, 16, 8, -16, -35, -90, 33, -10,
   -17, 10, 33, -19, 21, -25, 40, 33,
   -10, -22, -8, -17, -20, -15, 27, -26,
   12, -14, 25, -10, -15, -40, 34, 29,
   -3, -40, 2, -21, 39, 21, -11, 43,
   10, -26, 9, -28, 27, -4, -41, -26,
   28, -17, 8, -40, 3, 70, -12, 10,
   -13, -51, 12, -30, -28, -17, -17, -34,
   13, -54, 40, 18, -25, -21, -15, -36,
   24, -11, -10, 4, 37, 15, -17, 6,
   18, -46, 33, 58, -23, -22, -11, -51,
   -8, 35, -27, -15, 45, -43, 11, 11,
   2, -18, -12, -1, 23, -43, 16, -20,
   -29, -38, -11, 46, -13, -26, 16, -7,
   -26, -11, 15, 0, -14, -3, 46, -22,
   18, -41, -22, -18, -20, 36, -14, -22,
   24, -19, -51, 51, 0, -76, -53, 5,
   -15, 46, 35, -15, -12, -13, -1, 12,
   -37, -2, -1, -32, -46, -26, 2, -39,
   -22, -11, -39, -3, 1, 40, 39, -6,
   9, -29, -27, -30, 31, -28, -4, -5,
   32, 22, -10, -13, 32, -52, -21, -21,
   -44, 18, 22, -34, 29, -29, 1, 29,
   44, 15, 23, -12, 38, 30, -30, -39,
   28, 0, -36, 29, -17, 22, 44, -14,
   27, 11, 12, 13, -5, -17, -13, 35,
   -18, 31, -32, 27, 37, -48, 1, -39,
   -29, 32, -48, 7, 10, -6, -12, 2,
   -32, -2, -53, 13, -26, 22, 21, 16,
   48, -8, -56, -32, -54, 28, 11, 44,
   -10, 44, -20, -8, 14, 31, 7, 21,
   8, -29, -26, -2, -17, 8, 11, 9,
   12, 47, -8, -15, -9, 44, -15, -12,
   14, -13, 30, -35, -12, -2, -6, 15,
   24, 24, 3, 1, -5, -9, 48, -33,
   -14, -43, 54, -19, -40, 24, 7, -23,
   -41, -11, -11, 21, 35, -32, 23, -37,
   34, -44, 2, -37, -12, -59, -18, -35,
   22, -39, -43, -43, -19, -9, -22, 13,
   -18, 21, -50, -33, 29, 26, -31, -49,
   -12, 17, 13, 31, -10, -14, -20, -18,
   -23, 22, 35, 19, -2, 10, -26, 28,
   -47, 18, -27, 8, 3, -34, -7, 14,
   -3, 22, 22, 16, -11, 23, -5, -7,
   31, 25, 12, -15, 23, -2, 14, 29,
   32, 17, -11, -23, -4, -18, 0, -34,
   70, 38, 33, 40, -40, -14, -31, -13,
   -16, -44, 67, 11, -4, 13, 1, 20,
   13, -2, 20, 2, -6, -17, -17, -11,
   50, -47, 13, 14, 42, 33, 56, 20,
   -35, 29, 13, 28, -7, -26, 17, 7,
   -57, 22, 12, 23, 36, 6, 4, -27,
   -15, 16, -3, 5, 41, 59, 0, -8,
   12, -20, -7, -32, -17, -27, -19, 4,
   -6, 17, 44, 21, -10, 47, 40, 12,
   -18, -9, 1, 0, -16, -27, -2, -40,
   19, 9, -23, 24, -37, 9, -43, -21,
   -30, -1, 44, -25, -19, -15, -33, 26,
   23, -1, -1, -22, -3, 6, -22, -12,
   5, 10, 24, -2, -8, 24, 30, 8,
   9, -38, 46, 22, 28, -40, -16, -40,
   -11, 27, 33, 23, -23, -19, -27, 9,
   10, 49, 32, 1, -17, 12, -12, 41,
   -7, 27, 33, -26, -19, 0, 26, -29,
   -67, -38, 5, -29, 0, -44, -45, 42,
   10, 4, 9, -47, -4, 23, 23, -13,
   20, 25, 18, -13, 41, 24, -43, -9,
   24, -13, 21, 29, -2, -43, -52, -43,
   -21, 11, 62, -2, -52, -13, 16, -95,
   3, -18, -3, -19, 6, 3, -48, -23,
   20, 18, -7, -33, 11, 58, -23, 10,
   22, -11, -46, -13, -15, -15, 3, 21,
   15, -5, 15, -40, 55, 24, -12, 30,
   5, -50, -21, 28, -7, -64, -5, 44,
   46, 41, 2, 7, -14, -55, -11, 2,
   -27, -25, 17, -27, -8, -9, -26, 28,
   -33, -21, 32, 40, 37, 69, -1, 20,
   -13, 13, 26, -27, -22, 37, -21, 27,
   -4, 24, 22, 13, -60, 30, 6, -16,
   -38, 19, 27, 43, -44, -19, 13, 14,
   -8, 4, 14, -39, -31, -19, 44, -24,
   4, 35, 5, 42, 27, -15, 25, 34,
   -82, 21, -55, 15, 2, 5, 5, 25,
   -37, 23, -10, -5, 34, -17, 43, -30,
   4, 8, 49, -9, 33, -41, -65, 65,
   -38, 41, 30, 57, -43, 72, -28, -4,
   -9, 59, -29, -11, -33, -69, 50, 26,
   26, -65, 72, -56, 27, -28, -39, 9,
   25, 1, -29, 16, -18, -3, -30, 33,
   -30, 16, -52, 26, -51, -38, 23, -5,
   -32, 34, 1, -50, -28, -30, 45, 42,
   27, -17, 2, -44, -47, -100, 10, -31,
   50, -7, 47, -29, -35, -9, -18, 81,
   -20, -1, 32, 14, -15, -8, -29, -13,
   17, -4, -31, 8, -17, 36, 4, -60,
   9, -14, -7, 20, -20, 7, -55, 21,
   -52, -15, -15, -25, -33, 34, 45, 8,
   2, 15, 42, 5, 21, -16, -13, 5,
   11, -58, -60, 13, -21, 40, -13, -66,
   -10, 32, -42, 7, 11, -47, 12, -8,
   9, -1, 48, 12, -5, 45, 34, -5,
   20, -29, 54, 25, 3, -2, 27, 24,
   -45, 51, -51, 50, -43, 26, 44, 52,
   35, -1, 23, -4, 43, -26, -39, -12,
   25, 13, -52, 38, 24, -10, 64, -11,
   -4, 17, 16, 32, -21, 94, 8, 20,
   -4, 8, -66, 19, -30, -38, 1, -18,
   -23, -30, -24, -18, -12, -33, 5, -24,
   -28, 73, 7, -13, -40, -7, 28, -18,
   24, 64, -43, -2, -28, -13, -37, 22,
   44, 18, -1, 10, -5, -28, 27, -40,
   -23, 14, -41, 6, -20, 30, -39, -13,
   7, -35, -49, -2, -14, -40, 45, -15,
   5, -25, 15, -32, -31, 8, -38, -28,
   11, -1, -15, 33, -10, 19, 8, 29,
   -6, -12, 6, -7, 13, 14, 28, -20,
   -37, -19, 10, -12, -23, 25, -15, 44,
   -10, 3, 30, -12, 14, 4, -50, 39,
   3, 6, -11, -33, -9, 0, 5, -33,
   39, 56, -19, 40, -43, -20, -41, 3,
   -13, -10, -29, 48, -18, -9, -17, -46,
   -46, -53, -17, -53, -4, -2, 45, -4,
   16, 18, 16, 1, 0, 37, -10, -66,
   33, 5, -58, -19, 3, 25, -12, 7,
   25, 12, 35, 18, 28, -38, 12, -34,
   -48, 55, 50, 3, -20, 9, 35, 11,
   -30, 28, -10, 9, -26, -34, 30, 8,
   -35, 19, -7, -21, 11, -19, 7, -36,
   -61, -21, 11, -2, 14, -23, 11, 29,
   44, 31, -10, 14, -7, -15, -16, -46,
   -8, 28, -15, -18, -11, 14, 35, -15,
   11, -20, -4, 24, 35, -15, -3, 19,
   32, 17, -41, 4, 11, 5, 29, 31,
   15, -51, -33, -17, 9, -4, -8, 14,
   17, -7, -28, 10, -11, 28, 50, 10,
   -1, 25, -34, 18, 10, 17, -14, -1,
   -32, -15, -26, -32, -25, -55, -21, 38,
   5, 1, -45, -17, 15, -52, 56, -4,
   -25, 13, -35, -1, 1, -35, 36, 21,
   13, 18, -39, -15, -12, 23, 26, 7,
   -40, -32, -20, 9, -43, 42, -43, -46,
   18, 23, 36, -16, -4, -40, -1, 3,
   -12, 16, 9, -28, -7, 16, 49, -16,
   8, 74, -41, 16, 17, 10, 15, 36,
   -8, -52, 29, -6, 37, 3, -6, -2,
   -3, -38, -13, -34, -1, -49, -25, 8,
   -31, 0, -14, 10, 13, 16, -10, -5,
   -34, 7, -17, -23, 24, 39, -35, -56,
   20, 17, 18, 31, 54, 41, -24, -25,
   -11, -4, -22, -29, 0, -26, 33, -14,
   21, 1, -1, 31, 22, 46, -8, 11,
   -4, -45, -3, 6, 57, -9, -39, 8,
   6, 31, 37, 22, -17, 24, 22, -22,
   -30, 51, -1, -15, -21, -10, 12, 42,
   34, -3, -81, 12, 43, -27, 5, 9,
   -16, -5, 6, -6, -32, 15, 4, 26,
   34, -8, 59, -28, 27, 31, -40, -31,
   -13, -3, 0, 4, 42, -6, 31, -47,
   36, 14, 19, 38, -29, 30, -17, -9,
   30, 10, -50, -51, 19, -102, -75, -4,
   38, -18, 13, 2, 25, 4, -18, -15,
   30, 17, 18, 11, -22, 3, -11, 44,
   -52, 18, -34, -15, 24, 15, -34, -23,
   32, 11, -16, 32, 40, -39, -31, -70,
   9, 10, -3, -40, -26, 25, -18, -33,
   55, 16, 25, 16, 22, 56, -36, -49,
   15, -6, -19, 23, 32, 4, 11, 17,
   15, -9, 7, 2, 25, -13, -8, 14,
   -24, -16, 8, 36, -45, -15, 9, 18,
   37, 47, 36, -28, -11, 20, -16, 31,
   -19, -32, -21, 28, -2, 4, 30, 52,
   30, 28, -21, 30, 22, -4, 9, 30,
   -36, -25, 1, 38, 28, 9, -1, -7,
   43, -37, 24, 83, -18, 50, -8, 4,
   -7, 29, 4, 10, -29, 45, 21, -4,
   9, -41, 1, -30, -24, -41, 10, -29,
   12, 42, -2, -29, 17, 19, -2, -50,
   -27, 43, -30, 21, -16, -17, 14, 33,
   41, -50, -22, 2, 56, -11, 31, 31,
   1, 14, 16, 34, 19, -31, -43, -54,
   -20, 6, -38, 31, 36, -17, 19, -8,
   -14, -45, 21, -56, -20, 4, -14, 30,
   6, 32, -19, -29, 43, 25, 24, -26,
   27, -1, -10, 22, -21, 18, -4, -15,
   -11, 29, 25, -41, 24, -8, 28, -34,
   -40, -14, -45, 26, -4, -5, -2, 22,
   -33, -28, 1, 9, 35, 2, 7, -2,
   -6, 27, 14, -6, -24, 46, -40, -5,
   25, -27, -3, -45, -27, -24, 34, 7,
   -3, -10, 18, -18, 53, -23, 4, 26,
   -22, -16, -126, -8, -13, -43, 18, -64,
   -24, -18, -86, 12, -9, 52, -15, 6,
   -19, 1, 28, 35, -16, -4, -35, -47,
   -49, -29, -46, 2, -34, 18, -87, 33,
   29, -38, -85, 79, -24, -94, -16, 38,
   56, 3, 33, -34, 5, 50, 9, 26,
   39, -21, 68, -38, -4, -8, 33, 49,
   -4, -33, -6, 41, -54, -45, -38, 75,
   7, 21, -13, -9, 20, -56, 28, 56,
   34, -45, -5, -22, 9, -9, -6, 46,
   36, -49, -26, -56, 26, -12, -105, 63,
   0, 1, -36, -15, -42, 26, -50, -14,
   32, -54, 16, 10, -10, 32, -3, 31,
   -11, -13, -35, 35, 7, 26, 0, 88,
   51, 8, 11, -17, -21, 37, -34, 72,
   38, -9, 23, -85, 33, -80, -10, 36,
   -61, -67, 30, -44, -41, -20, -6, -27,
   16, -10, 4, 2, -55, 51, -52, 39,
   20, -36, -18, 9, -14, -49, -24, -4,
   8, -22, 46, 115, -19, 60, -90, 53,
   20, -13, 41, 10, 17, -2, 71, -3,
   20, 14, 11, -4, -8, -79, 24, -43,
   -9, 0, 6, -4, 7, 61, -47, -72,
   17, 63, 111, -2, -49, 15, 66, 27,
   15, -2, 57, 11, 48, -35, 46, -5,
   36, -60, 23, 31, -26, -20, -22, -15,
   10, 33, -47, -33, 45, 14, -51, 29,
   -4, -37, 21, 12, 16, 0, 1, -17,
   -57, -6, -3, 15, 30, -16, 28, 6,
   -5, -74, -60, -25, 8, -7, 41, -33,
   -23, -34, -3, 13, 12, -44, -14, 27,
   4, -44, 5, -15, -24, -16, 21, 29,
   -10, -17, 0, 3, -14, -37, -55, -12,
   5, -25, -17, 12, 6, -27, 15, 1,
   23, 27, -23, -8, -19, 3, -20, 40,
   -4, 10, 3, -33, 9, -27, -12, 34,
   -27, 1, -56, -39, -23, 16, 5, -47,
   56, -9, -71, 14, 5, -31, -92, 29,
   14, 34, -42, 0, -50, -34, -26, -19,
   -39, -48, -47, 19, 12, 13, -18, 27,
   12, 13, 10, 40, -19, -13, -56, 24,
   41, 6, -32, 31, -44, 23, -48, 28,
   48, 6, 12, 38, -1, -7, -12, -42,
   -6, -59, 3, -19, -40, -8, -5, -1,
   -30, 28, -21, 2, 9, -5, 36, -21,
   30, -12, -45, 18, 32, -6, 33, -28,
   30, 6, 23, -36, -7, 31, 41, 20,
   40, -6, -22, -21, 15, 14, 20, -43,
   -37, 26, 24, 19, -16, 32, 14, 36,
   -2, 18, 17, 38, 43, -26, 15, 25,
   9, 0, -38, 37, 4, -49, -3, 29,
   21, 0, -26, -28, 3, 52, -17, 1,
   16, 21, -11, 17, -15, -16, -41, 1,
   3, -3, -28, -39, -27, 16, -17, -30,
   -23, -27, 17, -12, 43, -43, 11, 41,
   6, 36, 27, 7, -29, 8, -7, 27,
   35, -24, -56, 26, 25, -48, -30, 31,
   -26, 0, -1, 9, 54, 9, 0, 11,
   1, -36, -15, 10, 26, 46, -11, -25,
   -11, 18, -5, 10, -21, 2, -11, 18,
   -15, 21, -16, 29, 27, -27, 17, 33,
   -6, -6, 28, -25, -38, -48, -11, 19,
   11, 27, -13, 39, 8, 13, 9, 13,
   7, -41, -2, 8, -31, 25, 24, -48,
   0, 14, 13, -31, 32, -12, -22, -6,
   31, -14, 2, -18, 5, -4, 31, 37,
   25, 10, -27, -6, 29, 16, 24, -28,
   11, 16, 23, -39, -37, 1, -5, -21,
   44, -36, -26, -25, -44, 15, -15, 30,
   -4, -25, -9, -20, 27, -27, -15, -2,
   -5, 15, -32, 4, 14, -16, 38, 25,
   -20, 36, 16, 26, -4, 14, 39, 28,
   19, -17, -27, 21, -44, -24, -30, -12,
   -18, -35, -25, 31, 31, 5, 4, 36,
   35, -8, -50, -62, 36, -2, -23, 38,
   -20, -18, 17, 9, 27, 5, -15, -28,
   12, 4, -13, 24, -13, -40, 8, 18,
   -3, -4, -58, -11, 58, 9, -25, -26,
   49, -45, 8, -29, -4, -28, -35, 19,
   -31, -11, -22, -36, -11, 24, 21, 28,
   -21, -42, 16, -11, 10, -26, 11, 15,
   17, -20, 23, 42, -10, 5, 2, -39,
   28, 36, -9, 31, -32, -2, 52, -32,
   -8, 28, -33, -49, -32, -33, -8, 25,
   21, -18, 30, 32, -22, 18, -2, -44,
   10, 6, 11, 32, -25, -2, 23, -16,
   11, -22, 12, -25, -20, 36, -28, -17,
   -8, 17, -24, 31, 45, 3, 0, -6,
   -39, -19, 22, 7, 23, 48, -26, -5,
   -2, 29, -16, 3, -37, -8, -2, 15,
   43, 23, 17, 6, -17, -14, 26, -39,
   -44, -29, -37, 25, 29, 44, -24, 30,
   44, -15, -26, -31, 21, -7, -24, -18,
   -33, 26, -42, -1, -6, 24, -26, 8,
   17, 57, -59, 62, 14, 42, 37, 44,
   50, 6, -37, -4, -14, 15, 14, 21,
   -25, 13, -21, 15, -45, -2, 43, 13,
   -9, 6, 10, -22, -39, -39, 17, 34,
   -45, -12, -17, -14, 10, 13, -29, 32,
   -16, -17, 9, -30, -20, -2, -16, 47,
   21, -21, -2, 19, 29, -41, -4, 9,
   -3, 15, -6, 11, -61, -24, 28, -47,
   -23, -37, -18, 5, -17, -22, -44, -22,
   -26, -40, -9, 23, -6, -6, -15, 12,
   11, 26, 30, 9, -42, -18, -24, 25,
   -25, 55, 23, -27, 28, 18, -34, -1,
   37, -28, 43, -3, 21, 10, -6, -50,
   8, 26, 21, 20, -7, -34, 13, 27,
   7, -11, 33, -22, -65, 18, -18, 6,
   -24, -45, -13, -9, 38, 9, 5, 8,
   0, -24, -50, -9, 37, -39, -17, 3,
   34, 1, 8, 1, -58, 24, 17, -40,
   11, 22, 21, 9, 28, 10, -4, -4,
   0, -7, -35, -13, 29, 41, -44, -33,
   -12, 29, 30, 29, 7, 17, 9, 51,
   -17, 10, 2, -27, -4, 4, -2, -41,
   -3, -23, -38, -19, 30, -23, 30, 22,
   -23, -18, 16, 18, -6, 2, -9, 38,
   26, -30, 49, -35, -38, -42, 9, -38,
   2, -4, 36, -42, -20, 11, 11, -22,
   37, -32, -12, -37, -26, -3, -16, 20,
   -27, 25, -23, 18, 22, 21, -21, 23,
   23, 22, 10, 22, -5, -13, 10, 30,
   7, 1, -30, 12, 26, 13, -4, 18,
   -31, 11, 36, -5, -29, 34, -18, -21,
   -45, -30, -8, -31, -23, -18, -13, -10,
   -3, -34, -3, 13, 14, 2, 23, 1,
   1, -13, 23, -43, -21, 12, -15, -31,
   -37, -28, 30, 15, 10, 35, 47, -27,
   -28, -1, -12, -5, 7, -53, 3, 22,
   -10, 2, 45, -31, -10, -16, 15, 5,
   -1, 28, 52, 33, -48, -5, -19, 38,
   -33, -34, -29, -14, -14, -33, -34, 18,
   13, -28, 30, -30, -30, 18, -16, -42,
   8, -21, 46, 23, -30, -25, 5, 16,
   25, 37, 38, -32, 11, 33, 40, -26,
   -26, 34, 31, 42, 34, 13, -8, -3,
   -57, -5, -13, 48, -6, 3, 39, 18,
   -25, -19, -34, -13, 1, 0, 7, 42,
   -30, 21, -3, 44, -16, 20, -18, 32,
   -36, 36, -17, 31, 14, -8, -21, 29,
   29, -18, 13, 38, 32, -4, -26, -12,
   23, 50, 38, -6, 4, 19, 33, 24,
   -16, 38, -18, -19, -37, -36, -5, -22,
   37, -21, 23, -32, -75, -28, 45, -22,
   -42, 26, 80, 21, 42, 83, -81, -18,
   1, -9, -31, -4, -15, 14, 18, 19,
   41, 49, 18, 26, -101, 3, -48, 75,
   -45, -52, -2, 19, 43, 71, 60, -70,
   22, 58, -15, 44, -62, 18, 8, -21,
   -43, -18, -46, 5, -23, 29, -3, -26,
   9, 10, -25, 2, -15, 37, -23, -89,
   34, 46, 3, 14, -2, 6, -4, -7,
   -8, -6, 6, -12, 56, 67, -36, 25,
   51, -20, 22, -15, 21, -49, -29, -44,
   19, 70, -27, -30, -17, -20, 7, -35,
   4, -5, -18, -3, 22, -24, 20, -15,
   -19, -38, -20, -17, 8, -24, 43, 8,
   -2, 34, -9, -19, 0, 3, -8, -32,
   -1, 15, 36, 5, -41, -24, 60, 0,
   7, 20, 8, 39, 37, 14, -6, 35,
   25, -13, 43, -4, 32, -60, -2, -43,
   -39, 23, 4, -1, 17, 22, 20, 18,
   -29, -36, 25, 46, -6, 46, 63, 5,
   -14, -12, 6, 20, -5, 39, 40, 25,
   20, -27, 4, 33, 2, 12, -28, 13,
   31, 2, -40, -6, 42, -42, 23, 24,
   -16, 7, 27, -10, -43, -4, 18, -22,
   -10, 41, 28, 28, -33, 4, -22, -3,
   29, -11, 26, -21, -23, 27, 28, 18,
   23, 27, 8, -5, -1, 4, -8, 28,
   25, 31, -7, -14, -14, -31, 21, -22,
   6, -8, -7, 44, -30, 56, -33, 49,
   25, 28, -12, 24, -9, 8, 12, 37,
   -33, 19, -38, 15, -31, 20, 36, 12,
   19, -19, -34, -3, 11, -21, 33, 36,
   9, -19, -11, 25, 26, 4, 38, -40,
   -13, 3, 17, 17, -6, 0, 37, -30,
   3, 41, -32, 19, 16, -3, -1, -18,
   -22, 14, -1, 13, -37, -43, -5, -7,
   -2, -5, 22, 1, -29, -52, 36, 44,
   14, 4, 14, -34, 37, -38, 11, 34,
   15, -16, 1, -2, 4, -6, 11, -4,
   23, -13, 18, 18, -20, -17, 22, 20,
   22, -34, 0, -11, -47, -17, -11, 16,
   55, -7, -78, -9, 0, 23, -3, 30,
   -22, 9, 22, -21, 7, 8, -16, -14,
   -10, -15, 24, -12, -46, -18, 4, -32,
   -40, -23, -29, -9, -47, 15, -20, 41,
   -34, 19, 30, 25, 19, 32, 5, -23,
   -10, 43, -21, -2, 12, -17, -14, -11,
   -15, 24, -27, -32, 8, -23, 28, -1,
   -11, 37, 36, -25, 57, -6, -18, -37,
   -14, 47, 39, 23, -1, 9, 29, 17,
   12, 17, 29, 29, -4, 21, 37, 4,
   42, -35, 51, -34, 29, 3, 19, -24,
   -1, 24, 30, 27, -13, 26, -36, -7,
   36, 34, -15, 29, -1, 18, 40, 1,
   -11, 8, 35, 15, 10, 42, 27, 14,
   0, 24, 48, 30, -4, 13, 2, -18,
   6, 44, -21, 11, 10, 4, -11, -14,
   34, 22, 42, -14, 72, -28, 14, -47,
   8, 42, 39, 9, 17, 22, -36, 21,
   11, -20, 21, -16, 18, -24, 17, -23,
   -9, -11, 30, -37, 20, 8, 41, -14,
   -28, -28, -29, -33, 46, 20, 0, 24,
   4, -55, 1, 3, 35, 43, -22, 10,
   15, -1, -13, 42, 5, 2, 1, -5,
   -3, -16, -55, 2, 23, 5, 43, 23,
   -33, -46, 15, 18, -28, 9, -18, 0,
   -31, 2, 4, -1, 34, 27, -11, 35,
   2, -14, 0, 3, 27, -34, 26, -19,
   26, -19, -7, -6, 26, -12, -4, -34,
   29, 19, -15, 47, 23, 30, -16, 44,
   41, 34, 16, -36, -25, -27, -16, 27,
   -43, 6, -14, 1, 2, -24, 0, 24,
   -15, -34, 29, -19, 30, 34, -14, -13,
   37, 33, 45, 19, -7, -39, 11, 17,
   15, 5, 46, -23, -1, 12, -13, 16,
   11, -6, 42, 19, -39, -2, 35, -49,
   26, -6, 27, 0, 3, -2, -1, -27,
   -28, 35, 31, 34, -39, 7, 28, -26,
   1, 24, 10, 15, -20, -23, 29, -16,
   4, 9, -38, -22, -15, 27, -37, -37,
   5, 24, -18, -27, 7, 2, -30, -38,
   4, -38, 8, 40, -39, 43, -11, 3,
   -42, 30, 21, -30, 40, -18, 19, -12,
   -5, -6, -13, -18, 39, -38, 24, 33,
   9, 31, -20, -25, -37, 30, -10, 42,
   13, 21, -25, -20, -13, -32, 10, -33,
   -7, -6, -20, 6, -22, -33, 5, 31,
   18, 13, 14, 44, -28, -29, -4, 23,
   -31, 13, 25, 38, -43, -41, -29, 22,
   -26, -18, -30, 40, -10, -31, -21, 14,
   -71, -33, -47, -39, 16, 3, -25, 16,
   17, -18, 0, 38, 11, -28, 66, 21,
   -9, 32, 23, 18, -37, -2, 31, 20,
   -2, -38, -25, 16, 22, -6, -7, 25,
   36, 4, 31, 9, 44, 5, 10, 21,
   -19, -4, 5, 31, -17, -64, 5, 7,
   8, 29, 9, 14, 18, 16, -40, -17,
   44, -7, -4, -25, 23, -5, -29, -6,
   53, 2, 51, 29, 22, 4, 35, -28,
   -5, -45, 19, -13, 28, -38, -28, 11,
   -2, 21, -52, 4, -17, 60, -9, -22,
   24, -31, 8, -6, -37, 24, 17, -32,
   -23, 16, 15, -7, 38, -2, -30, -33,
   45, 24, 16, -24, -25, -10, 21, 39,
   35, 2, 44, 14, -16, -13, 36, 34,
   4, 20, -2, -14, 28, -28, 7, -6,
   46, 39, 37, 1, 17, -10, -16, 32,
   11, 37, -24, 26, 5, 11, -23, 19,
   47, 41, -54, 13, 25, 40, -18, -16,
   31, -8, 26, -41, -25, -28, 72, -52,
   23, 27, -7, -10, 14, 1, -48, 2,
   36, 3, 4, -30, 47, 5, -64, -7,
   16, -27, 53, 10, 13, -39, 17, 22,
   -51, -3, -15, 22, -30, -60, -1, -16,
   26, 30, 19, 21, -14, 5, -17, -7,
   33, -2, -13, -42, -1, 55, 9, -16,
   -4, -9, 4, -10, -27, -14, 24, -27,
   -10, 23, 39, 39, -34, 9, 15, -10,
   -7, -49, -1, 37, -30, 2, 9, 34,
   -44, 18, -15, -3, -18, 27, 26, 3,
   7, 3, 8, 16, -35, -11, -18, 17,
   18, -14, 18, 19, -12, -8, -29, -1,
   14, 23, -17, -3, -6, -20, -32, -25,
   41, -21, 18, 2, 28, -9, -17, 1,
   -11, -42, 45, 27, 0, -21, -31, 30,
   7, -28, 25, 5, -22, 3, 20, -30,
   18, 10, 44, -60, 10, 30, 20, 30,
   -80, -68, 14, 2, -46, 8, 29, 20,
   -9, 40, 6, 20, 22, -49, 45, 14,
   42, -1, -27, 43, 52, -31, 58, 27,
   -28, 31, 9, 2, -39, 34, -26, 56,
   -48, -16, -6, 41, 65, 36, 6, 3,
   -43, 48, 32, 16, 2, 5, 35, 18,
   10, -39, 13, 31, 23, 3, 49, 14,
   -33, 27, 15, -36, 56, -21, 38, 8,
   -20, -31, 3, 40, -9, -11, -34, 10,
   15, 34, 26, 1, -9, -22, 31, -61,
   -19, -4, -9, -13, -4, 1, -15, 33,
   5, -5, -35, -5, -20, 34, 24, -31,
   -25, -26, -11, -41, -32, 8, 31, 26,
   56, 33, 3, 27, 18, -17, 3, 22,
   10, -11, 35, 37, -4, 16, 70, -37,
   -17, -21, 13, 40, 20, 29, -6, 47,
   -38, 28, -14, 34, -42, -34, -26, -7,
   16, -31, 14, 6, -23, -2, -14, -12,
   8, 33, 9, 13, 18, 12, 84, 30,
   -34, -30, -19, 71, -15, 67, 21, -47,
   15, -51, 5, -44, 17, 32, -5, 14,
   -10, -26, -21, 7, -4, -16, 35, -29,
   -9, 35, 10, 10, 2, -5, 16, -47,
   -4, 29, -8, 23, 41, 44, 3, -45,
   2, 4, -35, -10, 40, 30, -12, 15,
   47, 15, -9, 22, 2, -32, -38, -7,
   -3, -18, 22, -13, 3, -35, 42, 8,
   -30, 28, 12, 51, -23, 36, -7, -20,
   -11, 6, -34, 6, 24, -34, 50, 8,
   -20, -11, 21, 2, 14, -44, 24, -16,
   -26, -35, -14, -11, -27, 34, 29, 24,
   18, 10, -20, -7, -25, -22, 37, 5,
   -9, 26, -15, -10, -18, 37, 3, -24,
   -29, -17, -2, 50, 30, -21, -11, 41,
   -13, 1, 15, -11, 22, 17, 4, -7,
   -3, 9, 7, -25, -46, -21, -22, -10,
   -1, -41, -6, -44, 9, -13, -6, -9,
   -20, -8, -34, -50, -7, -15, -23, 15,
   21, -7, 18, 27, 19, 8, 50, 13,
   -51, -9, 8, -21, 18, 11, -15, -18,
   -21, 0, -66, 30, 22, 53, -40, -15,
   -2, 34, 19, -26, 2, -39, 15, -3,
   -14, -1, -11, 26, 8, 24, 26, -12,
   -63, -4, 15, -32, -21, -16, -5, -23,
   -23, -31, -4, 42, 9, -21, -32, -19,
   -14, 30, 32, -36, 2, -2, 17, -3,
   -8, 0, -17, 5, -36, 12, -20, 19,
   23, -10, -10, -17, -18, 34, 19, -21,
   -2, 19, -12, -26, -9, -19, 43, 35,
   4, -42, -3, 1, -10, -31, 29, 7,
   -26, 30, 15, 23, 33, 43, 21, -14,
   2, 17, -30, -29, 14, 40, 32, -26,
   -34, -1, -13, -28, -2, 22, -2, -12,
   48, -37, 24, -72, 7, 28, 3, 22,
   -44, -12, 38, 24, 27, -30, -15, 30,
   28, 6, -25, -21, -36, 39, 7, -23,
   1, 20, 47, 1, -16, 25, -5, -9,
   35, -4, 14, 49, 9, 0, 18, 25,
   -43, 30, -94, -6, -4, 38, 31, -17,
   -43, -28, -36, 11, 15, 28, -15, 15,
   -47, -19, -30, 26, 18, -29, 20, 31,
   -34, 33, 12, -41, 18, 4, -1, -13,
   38, 29, 18, -18, -35, 18, -15, -20,
   -11, -65, 25, -28, 36, -41, 10, -21,
   -13, 1, 0, -43, -40, -1, -17, 11,
   5, -24, 5, -3, -19, -2, 3, -40,
   -18, 19, -30, -36, -46, 44, 15, 9,
   -27, -16, 46, 31, -15, 10, -10, 16,
   -10, 14, 0, -35, 6, -1, 19, -35,
   35, -16, -33, 33, -14, -11, -45, -14,
   0, -22, 38, 22, -18, 16, 25, 3,
   -9, 32, 0, -11, -32, -7, 1, -26,
   -30, 3, 9, -3, -18, 35, 48, 2,
   34, 27, 19, -42, -12, -21, -61, 13,
   -7, 51, 38, -31, 22, 11, -1, 8,
   6, -18, -39, 48, 27, -42, -19, 52,
   -5, -51, -64, 32, 9, 49, -23, 30,
   26, 23, 43, -18, 10, -12, -30, 8,
   -10, 7, -20, -2, 26, 9, -8, 2,
   18, 26, -23, -18, -35, 43, -3, 45,
   -2, 15, 40, -19, 23, 21, -25, 16,
   -14, 10, 52, 14, -52, -30, 23, -33,
   50, -16, -14, -7, -21, 0, -16, 20,
   -30, 18, -35, 8, 25, 30, -19, -35,
   -19, -6, 30, -33, -22, 28, -33, 35,
   -25, -14, 20, -35, -27, 10, 13, 29,
   -41, -40, 4, 14, 17, -48, -5, 9,
   11, -24, -1, 28, 23, -6, 3, -49,
   -12, -37, 32, 20, -1, -23, 23, -30,
   17, 11, -25, -3, -7, -23, 15, 26,
   23, -1, 24, -24, -14, 37, -29, 21,
   35, -22, -9, -25, 44, 64, -14, 23,
   -31, 4, 33, 4, -12, 22, -21, -27,
   53, 8, -17, -48, 46, -42, 0, 2,
   6, 14, 34, 22, -15, -40, -3, 27,
   -36, 42, -35, 20, 4, -28, -12, -37,
   -16, -37, -34, -23, -19, 14, -51, 15,
   2, -21, 39, -13, 36, -3, -35, 3,
   5, -48, -22, 16, 28, -45, -29, 15,
   -22, -24, -29, -7, 31, -33, 16, 26,
   -18, 24, 12, 17, 10, 2, -29, 25,
   12, -38, -40, -7, -5, 30, 23, -34,
   18, -15, -2, 6, -1, 39, -29, 24,
   37, 24, 36, 8, -2, -37, -17, -36,
   31, 35, 5, 15, 13, -3, 19, 40,
   -6, 18, 1, -27, 34, 12, 27, 20,
   -18, 26, -2, -21, -20, -12, -37, 4,
   -49, 14, -61, -8, 27, 9, -31, -18,
   4, -28, -23, -5, 21, -31, 16, -17,
   4, 16, -36, -83, 43, -28, -83, -4,
   -12, -26, -5, 48, 21, 19, 17, 12,
   -28, -35, 25, -2, -31, -34, 17, 19,
   5, -26, -44, -39, 7, -8, -36, 30,
   9, -55, 46, 30, 10, 6, -24, 12,
   25, -45, 38, 34, -14, -9, 27, 23,
   -10, 44, 32, -33, 27, -16, -37, 49,
   -19, -36, 23, -33, 13, -40, -5, -27,
   -7, -8, 15, -36, -38, -31, 40, -22,
   12, -37, 36, -49, 7, 36, -47, 27,
   43, -35, -5, -25, -21, 25, 4, -18,
   11, 19, -25, -14, -35, -15, -41, -27,
   33, -10, -17, 13, -4, 20, -31, 0,
   -1, 7, 24, 26, 24, 18, 4, 16,
   16, -11, 18, -7, 17, -15, -34, -28,
   22, 6, -32, -37, 4, -23, 35, 6,
   -18, -34, -16, -10, 26, 15, -26, -6,
   2, 4, 25, 57, 33, 25, -5, 3,
   4, -40, -55, 31, -36, -17, 66, 20,
   -45, 0, 11, 7, -9, 23, -4, -29,
   10, 19, -11, -26, -17, 25, -48, 1,
   11, 7, 47, 21, -7, -17, 46, 7,
   -16, -21, -1, 18, -39, 20, 23, -12,
   0, -1, -22, 39, 34, -7, 4, -17,
   -2, 0, 14, -10, 22, 5, -1, 1,
   -16, -11, -7, -8, -39, 30, 24, 45,
   -19, -37, -3, -14, 33, -8, 53, -40,
   -16, 41, -9, -22, 9, 26, -1, 22,
   11, -2, -2, 26, 32, 18, -22, -4,
   22, -32, 16, 28, -1, -3, 4, 21,
   -24, -5, 22, 30, -28, 11, 25, 0,
   40, -16, -3, 25, 19, 3, -22, -20,
   -32, -27, 16, -1, -24, -10, 29, -22,
   -20, 31, 32, -29, 38, -3, 19, -33,
   16, 40, 10, -42, -7, -42, -7, -3,
   -45, 15, -83, -9, 12, 38, -33, 46,
   58, 59, -45, -55, 43, -65, 57, 42,
   0, 11, -9, -56, -44, -8, -76, 43,
   -34, 28, 1, -2, 28, -30, -32, 4,
   45, -1, 15, 0, 25, 59, -27, 45,
   8, -47, 9, 0, -7, 6, 5, 14,
   -30, -29, 2, 27, 21, -3, -49, -23,
   41, 35, 44, -20, -8, -14, 26, 57,
   22, 15, -24, 31, 6, -32, -15, -4,
   25, 29, 69, 10, -10, -11, -21, 25,
   59, 34, 3, -7, 0, -40, -2, -22,
   16, 39, -23, -19, 9, -33, 24, 22,
   26, -13, 15, -18, -19, -33, -14, 15,
   15, -30, -36, 3, -33, 49, 14, -3,
   -42, -12, 4, -26, -30, 6, 13, -55,
   -21, 8, -6, -11, -33, 41, 21, -25,
   34, -27, 38, 26, -48, -30, -26, 22,
   20, 46, 28, 3, -56, -2, -42, -15,
   15, 32, -19, 45, 38, -14, 60, 69,
   -16, -10, 27, 53, -13, -10, -13, 8,
   -3, -18, 24, -30, 15, 37, 49, 13,
   7, -13, -6, -25, 20, 7, -3, -1,
   -19, 31, -63, -17, -25, -39, 36, -2,
   18, 1, -3, 17, 31, -33, 16, 31,
   -20, 7, -24, 4, -31, 2, -29, -1,
   -33, 7, -10, 24, -17, 19, -36, 39,
   1, 4, 17, -27, -27, -31, 20, -22,
   -14, 19, 11, 10, -10, -40, 4, 16,
   18, 12, 43, 3, 15, -26, 13, 14,
   -22, 11, -33, -5, 5, -29, 0, 0,
   25, 22, -40, -30, 36, 20, -19, -18,
   13, 32, 19, -8, 38, 25, -9, -30,
   2, -12, 34, -2, 35, -16, 22, -20,
   19, 0, 21, 35, 3, 36, 25, -32,
   39, -20, -55, -7, 10, 12, 22, 24,
   -33, 3, -20, -7, -42, -37, 36, -19,
   9, 35, -46, 24, 35, -33, 69, 2,
   49, 23, -2, -20, -17, -13, -35, -37,
   -51, 66, 38, 3, -13, 37, 12, -9,
   18, 26, -9, -41, -58, -14, -44, -9,
   -2, -26, 38, -3, -28, 8, 1, -3,
   -10, 22, 43, 8, 24, -2, 45, -4,
   -33, 78, 9, -22, -20, -15, -20, -12,
   30, 28, -47, 14, -53, 17, 16, -33,
   -16, 36, 59, 6, -7, -11, 47, -9,
   -20, -44, 2, -21, 40, -7, -34, -15,
   20, 0, -21, -41, 30, -6, 21, -10,
   23, 25, -16, -46, 20, -19, 26, 9,
   23, -22, -13, 5, 7, -28, -12, 30,
   16, 5, 11, -27, 30, -10, -8, -15,
   39, -9, 25, -28, -18, 0, -20, 48,
   60, -24, -5, 29, 24, 19, 14, -22,
   25, -54, 16, -21, -35, 29, -29, -21,
   -18, -26, 11, 8, 57, -4, -1, -30,
   22, -19, 55, -32, 36, 20, 31, -31,
   -14, -15, -5, 62, 35, 69, -10, -20,
   1, 30, -22, -24, 60, 4, -12, -10,
   27, -6, 21, -59, -19, -19, 15, -18,
   5, 17, 109, 16, -32, -41, 11, -9,
   27, 34, 10, -22, -20, 8, -27, -21,
   27, -39, -1, -34, 34, 56, -32, -16,
   38, 11, -29, -17, 9, 21, 31, -24,
   -10, 0, -7, -56, -18, -5, -6, 9,
   -31, -14, -15, 2, -15, 11, 9, 0,
   24, 21, 44, 19, -21, -14, -24, 3,
   -25, -20, -29, -7, -29, -40, -32, 34,
   14, 47, -2, 14, 22, -13, 3, -3,
   16, -25, 3, 26, 27, -42, 46, 27,
   -6, -54, 21, 25, 39, -30, 33, -20,
   -36, -2, -14, 36, -18, 17, -22, -15,
   39, -22, -19, -13, 21, -46, -25, -44,
   4, -9, 15, -9, -34, 33, 23, -7,
   19, -19, 13, 23, -9, 2, -32, -6,
   -4, 21, -29, -21, 27, 22, 0, -6,
   33, -4, 0, 28, 15, 30, 2, 0,
   -28, 9, 17, -17, 31, -19, 36, -44,
   -29, -13, -50, -32, 22, -37, -3, -11,
   -12, 9, -6, -12, -18, 10, -20, 16,
   23, -7, -19, -30, 21, -2, 25, 14,
   -15, -40, 9, 2, 29, 11, 19, 11,
   -2, 41, -2, 22, 9, -13, -5, 17,
   21, -13, -26, 7, 16, -7, 5, 23,
   10, -48, 17, 11, -16, -28, -36, 20,
   3, 6, 11, 11, -16, 28, -4, -14,
   -20, -34, 20, 3, 24, 19, 13, -21,
   27, -31, 11, 32, 27, -6, 0, -19,
   4, -4, 20, -7, -16, -35, 20, -21,
   -15, 11, -16, 11, -12, -32, -21, 22,
   -25, -29, 22, 23, -14, 11, 1, 34,
   -24, -51, 2, -35, -11, -6, -17, 29,
   0, 16, 13, 34, 3, 25, -6, -30,
   12, 18, 27, 1, -13, -10, -26, -23,
   -11, -43, -10, 29, 6, 25, 36, -20,
   -39, -37, -7, -35, -43, -14, -26, 53,
   -4, -21, -60, -11, 25, -51, -16, 11,
   7, 9, -11, 33, -1, -31, 5, 0,
   -4, -15, -32, -18, 39, 24, -27, 15,
   3, -34, 14, 35, 1, 37, 21, 6,
   -6, 6, -8, 4, -5, 8, -17, 21,
   -38, 4, 13, 26, -19, -27, 30, 31,
   41, -24, 24, 12, -28, -17, -33, -12,
   7, 5, 6, 24, 15, 10, -31, 1,
   31, -12, -25, 2, -3, 38, -17, 26,
   24, 16, -25, -22, 8, 23, -30, 24,
   33, -31, 31, 3, -46, -28, -29, 2,
   7, -19, -35, 30, -36, -41, -19, -25,
   -19, 0, 42, 27, -45, -30, -1, 25,
   -49, 27, 14, -29, -10, -36, 12, 8,
   63, -2, -21, -27, 16, -29, 14, 45,
   -21, -23, 14, 0, 45, -36, 8, -36,
   -53, 27, 1, 11, -23, 12, 29, 39,
   -36, 3, -6, -37, -5, -43, 13, 86,
   15, -33, -24, -10, 24, 19, 21, -31,
   30, 30, 2, -16, 20, 16, -59, -18,
   23, 20, 11, -7, 3, 40, -43, -36,
   -70, -30, 4, 23, 12, -54, 37, 4,
   -19, 26, -7, 6, 13, -43, -16, 6,
   -1, -1, -18, 21, 3, -10, 1, 30,
   -79, 12, -44, -26, 14, -12, -22, 9,
   -14, 35, -23, 21, -29, 17, 23, 7,
   -42, 29, -22, 41, 33, 44, -22, 22,
   -28, -29, -10, 51, 22, 37, 36, 9,
   -19, -9, -19, -39, -12, -21, -33, -3,
   37, 28, -20, 18, 1, -28, -45, -2,
   -7, -20, -50, 10, 5, -20, -16, 55,
   -59, 38, 12, 26, -30, -3, -17, 40,
   -30, 18, 49, -22, -29, -4, 43, -27,
   -4, 50, -4, -21, 59, -10, 44, 59,
   -49, 36, 13, 7, -37, 19, 2, 35,
   -18, 14, -55, -18, 21, -11, -6, -4,
   34, 3, 13, 13, 24, -30, 1, 20,
   -1, -17, 25, -37, 43, -27, -22, -40,
   5, -35, -15, 29, -12, 9, -27, -14,
   22, 20, -9, 18, 19, 12, -28, 28,
   21, -20, 46, -24, 6, 13, 17, -11,
   34, 35, 25, -31, 4, -10, 40, -9,
   -9, 28, 17, -41, 11, 39, -40, 1,
   -25, -9, 45, -4, -13, -2, 2, 20,
   -4, -26, -9, -1, -6, -25, -26, -27,
   -1, -35, 32, -57, -31, 18, 18, -20,
   25, -61, 18, 2, 35, 42, -34, 18,
   37, 9, -33, 18, 36, 20, 28, 21,
   -23, 7, -10, -22, -7, -9, 10, 2,
   -16, -54, -21, 66, -35, -7, 3, -34,
   30, -16, 27, 34, 22, 51, -14, -12,
   -23, -55, 12, 20, 76, 55, -31, 64,
   4, -20, 17, -8, 3, -27, 26, -1,
   -10, -24, 18, 46, -8, -32, -24, 89,
   9, 22, 11, 12, 44, -5, -48, -33,
   -22, -19, -16, -6, 43, -21, -23, 34,
   39, 30, -26, -11, -31, 47, -31, -34,
   -3, -49, 27, -3, -11, -12, -26, -31,
   28, 1, -65, 4, -17, -29, 28, 0,
   -25, -53, 5, 7, 19, -26, -16, 27,
   7, 4, 22, -6, -40, 21, -51, -74,
   -8, 19, 31, 11, 14, 16, -3, 13,
   -25, -7, -4, -6, 21, -21, 28, -13,
   21, 29, 34, 31, -5, -21, -53, -41,
   11, 19, 34, 6, 9, 16, -17, 9,
   3, -65, 30, -29, 33, 9, -8, -35,
   8, -17, 26, -22, 31, -27, -13, -9,
   -9, -37, -20, 32, -65, -2, 30, -13,
   -18, 3, -35, 80, 24, -8, -55, 1,
   11, 4, -3, 33, -46, -94, 9, -33,
   -42, -23, 27, -28, 0, -29, 31, 7,
   32, 9, -1, -9, -6, 39, 83, 9,
   8, 62, -4, 16, 35, 50, -32, 18,
   -31, 39, 12, 24, -76, -3, -43, -26,
   15, -108, 48, -30, 10, -25, 38, -50,
   -38, 17, -38, 8, -38, -39, 6, -8,
   20, -23, 18, 25, 9, -38, 21, 25,
   -42, 20, -33, -37, -60, 14, 106, -7,
   46, -52, -24, 19, -22, -52, 6, 63,
   -19, 16, -42, -11, -41, 9, -26, 42,
   47, 5, 42, -40, 21, 3, 19, -43,
   -31, 15, -13, -24, 53, -28, 57, -1,
   22, 14, 24, 17, 21, -41, 22, 17,
   -1, 41, 30, 12, 40, -4, -28, -16,
   25, -27, 34, 5, 40, -40, -8, -2,
   -86, 15, 108, -27, -24, 17, -36, 16,
   123, 81, 127, 20, 10, 59, -28, 87,
   -41, 10, -3, 2, -65, 52, 127, -33,
   -15, 50, 74, -35, -63, -6, 37, 35,
   109, 15, 0, -43, 23, 58, 91, 61,
   52, 46, 11, 57, -18, -53, 21, 21,
   -58, -52, -33, -23, 32, 9, -17, -96,
   -8, 32, 14, 64, -76, 23, 18, -34,
   -19, -62, 7, 31, -15, 51, 41, -11,
   -25, 39, 74, 58, 3, -29, 64, -73,
   -44, 110, -68, 28, 1, 2, 80, -128,
   -65, 108, -59, 19, 41, -69, 24, -25,
   -54, -12, -83, -4, 7, 13, -11, 40,
   23, 4, 8, 64, -15, 15, 19, -69,
   5, -14, -15, 1, 15, -21, 32, -57,
   -37, -86, -10, 25, 23, -38, 80, -54,
   -40, 50, -32, -6, -38, 10, 13, 107,
   2, 10, 34, 45, 17, -69, 8, -46,
   -128, 83, 14, 67, -2, 42, -42, 51,
   -90, -23, -50, 18, -60, 43, 127, 47,
   -18, -119, -98, -9, -52, 44, -128, 116,
   71, 31, 11, 24, -125, 25, -15, -44,
   29, 0, 67, 118, 42, -114, -43, -12,
   -47, -37, -18, 26, 20, 93, 2, -20,
   -15, -39, 1, -97, -32, 9, -48, 67,
   -57, 3, 68, -37, 24, -128, 62, -3,
   -60, -113, 9, 24, -62, 55, -76, -3,
   17, -73, -2, 49, 24, 127, -14, 49,
   14, -66, -33, 13, -1, 34, -23, -3,
   96, -100, 26, 36, 96, -126, 32, 76,
   -3, 17, 15, -73, -25, 25, 28, -19,
   29, 14, -9, -42, -12, -120, 42, -90,
   -15, 50, 29, -51, 42, -86, -31, -16,
   43, 43, -4, 45, -30, 24, 27, -7,
   17, -128, 13, -29, 73, 41, -45, 10,
   -13, 4, 4, -36, 64, -77, 45, -65,
   -14, 11, -46, 61, 27, -30, 27, -39,
   127, -17, 61, -11, -33, 64, -102, 81,
   -39, 51, 22, 26, 23, 27, 13, 76,
   46, 72, -25, 126, -46, 13, 67, -3,
   -34, 2, -48, -43, 32, -33, -7, -15,
   -16, -15, 1, 41, 66, -46, -20, 18,
   3, -50, 18, -43, 76, 75, 29, -41,
   7, -7, 24, 22, -21, -30, 61, -106,
   -40, 38, 36, 31, 77, 35, -24, 36,
   -16, -59, 63, 17, -63, -117, 50, -45,
   1, -44, 80, 14, -13, -5, -32, -40,
   35, 11, -51, 55, 22, -1, 24, -3,
   26, -31, -73, -14, 10, -15, 19, 37,
   55, 1, 21, 20, 20, -108, 52, -42,
   -7, -13, -26, -19, -88, -3, 31, -85,
   -45, -30, 28, 11, 37, -67, 12, 36,
   -14, 31, -27, 49, -26, -4, 69, 31,
   53, -32, 31, -17, -72, 44, -9, 18,
   80, 0, 104, -101, 11, 22, -26, -38,
   -34, -20, 99, 37, -2, -10, -36, 60,
   -28, 13, -55, 1, 110, 60, 127, 91,
   -5, 69, 11, -78, -55, -67, 127, 23,
   -4, -34, 41, 46, -32, -26, -44, 46,
   -37, -95, -59, 73, -104, -97, 109, -56,
   -35, -17, -40, 66, -3, -18, -20, 1,
   -93, 5, 127, 45, -39, -25, 87, -1,
   6, 12, 48, 59, -84, 37, 127, 78,
   -68, 26, -15, -19, -28, -99, 115, -44,
   16, 50, 44, 72, -17, -28, -84, 7,
   -56, 20, -49, 58, 74, -31, 107, 127,
   -39, -18, -89, 75, -76, -24, -20, -15,
   21, -10, -8, 90, -16, 67, 109, -39,
   4, 17, -17, -4, 51, -13, 84, -100,
   -43, -81, -33, 14, 12, -57, 64, -59,
   -73, 80, -39, 24, 7, 16, -26, 15,
   12, 32, 107, 19, -58, -6, 32, -65,
   15, 14, -63, -17, 49, 49, -47, 50,
   2, -47, -19, -87, 37, -83, -110, -40,
   -36, 26, 40, 31, -48, -9, -128, 63,
   39, -66, 66, -128, 120, -54, 51, -86,
   -40, -14, 62, -73, 38, -39, 99, -12,
   13, -89, 97, -26, 36, 111, -11, 19,
   2, -21, 8, -32, 106, 56, 35, 83,
   44, -32, -24, -11, 10, -12, 64, -26,
   23, 0, -45, 35, 106, -102, -56, -37,
   83, -128, 67, -34, -62, 109, 42, -90,
   2, -41, 12, 15, 7, 127, -27, -4,
   62, 0, 30, -11, 40, 88, -38, 13,
   28, -77, 1, 2, 11, -25, 24, -18,
   54, -27, 13, 26, 43, -41, 70, -49,
   40, -47, 6, -55, -59, -1, -27, -52,
   16, 127, -60, -85, -21, 26, 8, 42,
   -88, -45, 67, -18, 44, 68, 38, -73,
   48, 50, -37, -69, 13, 45, -7, -53,
   -27, -63, 0, 27, -58, 9, 34, -15,
   67, 41, 30, -44, 42, -21, 104, 60,
   -72, 28, -46, -4, -63, -73, 127, 126,
   -17, -30, 39, -111, 27, 24, 91, -51,
   24, 74, -10, 24, 109, -29, -14, 36,
   -2, -31, -72, -13, 6, -32, -7, -50,
   -14, -37, 3, -4, 74, 89, 105, -23,
   -78, 106, 31, 69, -73, -38, -57, 65,
   -69, -22, 67, 127, -4, -30, -54, 53,
   41, 98, 43, 54, 8, 127, 16, 23,
   0, 70, -128, -68, -19, -30, -14, -6,
   37, 17, 73, -21, 21, 64, 27, 108,
   -5, -17, -11, -58, 51, 13, 51, 14,
   -59, 16, -30, 98, 5, 21, 21, -30,
   71, 91, 40, -62, -2, 41, -87, -61,
   47, -107, -22, 56, 4, 32, 93, 44,
   -38, 22, 84, -62, 22, 18, -27, 7,
   -3, 3, 44, -12, -13, -24, -31, -105,
   -1, -57, 30, 60, 41, -38, -28, -67,
   103, 40, 38, 25, -6, 44, 127, 14,
   -30, 68, -68, 78, -8, 31, 106, -41,
   33, -81, -5, -94, 46, 18, 13, 52,
   21, 58, 20, 29, 34, 126, 127, -47,
   74, 30, -70, -19, -71, -21, -5, 7,
   24, -33, 37, 26, -55, 65, 60, -82,
   64, -98, -17, -24, -78, -5, -86, 77,
   31, -17, 75, -15, -49, -39, 8, -8,
   38, -61, 63, 79, 119, 127, 69, 88,
   21, 15, -99, 17, -30, -30, 70, -128,
   21, 11, 39, 19, 27, -51, 42, -5,
   12, 4, -39, 38, 7, 26, 66, 59,
   15, -70, -26, 51, -46, 44, -67, 11,
   17, 24, 57, 1, 16, 13, 7, 8,
   -29, -62, -51, 74, -13, 52, 42, -34,
   39, 48, 55, 54, -20, 20, -27, 123,
   -59, 21, -15, 75, 6, -34, 47, -46,
   48, -45, -128, -50, 31, -53, 1, -92,
   31, 36, 79, -62, 1, -115, 65, 30,
   -37, -3, -29, 65, -37, -96, -99, -28,
   -7, -2, -42, -40, 127, 74, 32, -29,
   35, -85, 44, -8, 72, 1, -78, 62,
   -44, -13, -125, 23, 127, 86, -53, -29,
   46, 17, 24, -41, -9, 80, 24, -35,
   -49, 35, 29, 41, 80, -127, -86, 127,
   -74, 21, 8, 22, -86, -16, -8, -84,
   13, -43, 50, 21, 26, 127, 59, 18,
   -15, 127, -124, 65, -7, -15, -13, 127,
   -29, 26, -36, -32, 57, 126, 12, -25,
   58, -3, 106, 15, 41, -46, -58, 16,
   -56, -12, -39, 127, 12, 37, -80, 87,
   -19, -43, 8, -42, -13, 30, 20, 76,
   49, 125, 43, -30, -61, 88, 45, 26,
   -75, 16, 9, -46, 36, 36, 23, 21,
   -8, 45, -14, -42, -61, 61, -35, -27,
   118, -53, 79, -11, -10, -51, 33, -20,
   89, -52, -128, 9, -57, -22, -29, 35,
   12, 93, 61, 127, -53, 4, 41, -40,
   -26, -76, -90, 40, 119, -34, -73, -68,
   25, 22, -17, 38, -20, 2, -31, 66,
   -21, -62, -125, 60, -50, -124, 107, 31,
   -36, -1, -39, 26, -4, 65, 20, 16,
   31, -40, -46, -43, -18, 1, -109, 89,
   9, 40, -9, 30, 67, -20, -33, -50,
   0, 24, 7, 38, 11, -81, -41, 28,
   -7, 33, -79, 49, 27, 71, -25, -49,
   -16, -23, -58, 48, 51, 115, 69, 13,
   37, -38, 14, -13, -60, -8, -15, -6,
   -45, -41, -9, 65, 44, 30, -84, 74,
   -51, 39, -8, -24, -82, 20, -40, 42,
   48, 59, -11, -24, -24, 1, -26, -4,
   -104, 57, -49, 27, 23, 33, 28, 49,
   35, 60, 5, 51, -31, 76, -17, 8,
   40, 36, 25, 46, 18, 4, 12, -105,
   11, 38, 26, -6, 15, -44, -11, -43,
   18, 45, 29, 79, -84, 19, 127, -60,
   -49, -112, -128, -126, -110, -4, -86, -48,
   -12, 121, 12, -37, -84, 106, 97, 104,
   2, 57, -105, -6, -120, 4, 57, -82,
   18, -42, 57, -49, 8, -37, -18, -32,
   127, -39, -17, -14, 31, -71, -13, 21,
   -12, 17, 11, 22, 29, -37, 29, 19,
   -15, -59, 90, 4, -27, 94, 80, -24,
   -78, -17, -104, 27, -44, -57, 107, -24,
   -78, 15, 67, 18, -21, -93, 11, 83,
   -8, -21, -14, 30, -22, -72, -11, 62,
   77, -29, 38, 26, 15, -4, -74, 19,
   31, 33, 38, -44, 18, -25, -13, -35,
   7, 127, -34, 49, 1, 37, 54, 25,
   -72, 7, 21, 1, 34, 11, -7, 38,
   -35, 20, -53, -13, 9, -84, 11, -65,
   125, 104, -111, 96, -82, -61, -60, -30,
   -48, 36, 41, 4, 28, -45, 54, 23,
   127, -89, 20, 39, 14, -36, 22, -100,
   -60, 94, -88, 16, 80, 98, -123, -49,
   -22, 96, 46, -38, 3, 16, 115, 50,
   105, -4, -100, -7, 86, 5, -44, 16,
   43, -85, -31, -50, 55, -6, -68, 7,
   27, 127, -7, 45, 17, 52, -69, 92,
   -78, 14, -12, 9, 59, -128, -15, -82,
   58, 74, -111, 5, -22, 37, -23, 87,
   -107, 63, -28, -53, 26, 107, 9, 10,
   -76, -54, 83, -18, -90, 67, 3, 3,
   95, -82, 63, -32, 51, -41, 21, -38,
   -55, 27, -17, 87, 2, 86, 29, 6,
   -85, -88, -62, -12, -58, -16, 15, 30,
   65, -22, -5, 0, -22, 59, -9, 5,
   -115, 106, 13, -33, 20, 95, -95, -9,
   -11, -12, -74, -39, -1, 44, -68, -102,
   74, 27, -60, 11, -86, 55, 80, -83,
   -50, -45, -73, 20, 95, 40, 8, -2,
   64, 16, 30, -108, 49, -16, -21, -128,
   -5, -56, -63, -128, 2, -13, 23, -8,
   -6, 67, 2, -38, -16, -6, -6, 48,
   -22, 60, -41, -4, -47, -65, 28, -25,
   -13, -61, -17, 21, 58, -21, -94, -27,
   33, -61, 54, 74, 78, -33, 5, -9,
   -90, -7, -48, 56, -49, -62, -70, -112,
   29, -85, -53, -11, -38, -6, 16, 5,
   -87, -51, -35, 24, -33, 69, -15, -75,
   -55, 32, 11, 49, -95, 86, 85, 54,
   27, -36, -38, 23, 3, 30, -3, 1,
   14, 34, -93, -21, -32, -23, 43, 13,
   -34, 20, 58, -45, 102, 74, 8, 77,
   -21, -12, -91, -7, 9, 43, 58, -53,
   -67, -53, 24, -19, -48, 51, -35, 95,
   -46, 31, 27, 48, 9, 33, 41, -24,
   89, 39, -25, 8, 43, 78, -1, -84,
   66, -1, 80, -12, 10, -43, -32, -26,
   14, -25, -53, -74, -70, -108, 44, -128,
   89, -46, -60, 0, 7, 2, 66, 26,
   26, 81, -49, 53, 0, 51, 95, -117,
   -53, 59, 67, 20, 10, 31, 66, 48,
   -98, -16, -32, 14, 10, -128, -50, -22,
   24, -12, 61, -6, -28, 44, 99, -64,
   6, -60, 33, 24, -83, -8, 59, 13,
   -70, -72, 33, -58, -39, -83, 16, -10,
   -57, 41, -27, 46, 11, 31, -44, -30,
   33, -20, -128, 58, -14, -78, 126, -6,
   -89, 42, -32, 39, -56, -24, -38, 53,
   23, -28, -46, 14, -54, 29, 39, -10,
   45, 26, 27, -4, -14, -45, 98, -2,
   -100, -15, -38, 36, -12, -67, -41, -37,
   -33, 25, -32, 32, -20, -23, 93, 40,
   9, 36, 41, 6, -80, -57, 23, -28,
   10, 21, -2, 47, 30, 61, -34, 27,
   -118, -59, -24, -59, 2, 3, 127, -20,
   -47, -54, 36, -6, 112, 8, 40, -34,
   51, -9, 84, 78, 46, -55, -27, -128,
   8, 121, -98, 78, -44, -1, -23, -9,
   38, 18, 4, -25, 6, 33, 2, -21,
   29, 77, -43, -44, -63, -44, -82, -30,
   -31, -28, 27, 11, -21, -43, 27, 82,
   96, -36, 25, 38, -34, 54, -28, -27,
   78, -89, 14, 48, -52, 63, 20, 20,
   -30, -101, -13, 60, -17, -3, 34, -128,
   -95, 11, 10, -45, 6, -34, 127, -25,
   40, 60, 58, -59, 1, 0, -44, -21,
   -76, 38, -5, 2, 21, -36, 1, -43,
   0, -15, -44, 76, 30, -108, -90, 16,
   11, 27, 44, 49, -21, 55, -26, -35,
   -21, 4, -68, -25, 2, 12, -39, -2,
   -33, -16, 55, 0, 39, 19, 52, 30,
   -23, 5, -85, -3, -41, 1, -30, 44,
   -69, -109, 3, -128, -22, -38, 127, -24,
   -44, -57, 43, 22, -115, 7, -24, -35,
   73, -6, 108, -2, 127, -7, -35, 63,
   52, -40, -41, 53, -31, -73, -12, 105,
   52, 110, -81, -46, 30, -22, -9, 28,
   -41, 120, 16, -39, -51, -108, -49, -91,
   -4, 96, 69, 81, -18, 75, 52, 117,
   93, 15, 31, 127, -34, -3, -63, 48,
   -27, -84, 100, 56, 83, 76, 72, -16,
   -33, -66, -26, 28, -44, 34, 2, 81,
   -38, 20, 3, -9, -109, 41, 127, -62,
   -3, 51, 37, 4, 39, -37, -32, 0,
   5, 13, -115, 72, -34, -10, 65, -17,
   97, -105, 12, -33, 16, 8, -73, -6,
   13, 61, -26, 35, -19, -25, 58, -56,
   -126, -107, -65, -33, 25, 16, -96, -62,
   3, -27, 82, -7, 24, 3, -4, -24,
   14, 56, -30, 12, 84, 15, 37, 45,
   -1, -93, -108, -60, 51, 95, 13, -55,
   -21, 0, -31, 33, 124, 127, 127, -95,
   29, 31, -69, 126, -25, -11, 26, 7,
   -11, 29, -25, 32, -2, -111, 60, 5,
   -62, -126, -61, 26, -58, -92, 23, 27,
   1, -21, 102, 62, 51, 74, 12, 40,
   -92, 78, -18, -1, 41, 38, 27, -101,
   14, -17, 52, -4, 4, 4, 121, -34,
   -14, 90, 17, -55, -111, -41, 10, -8,
   -116, -60, 127, 58, 22, 67, -51, -33,
   -8, 82, -120, -31, -20, -56, 51, 72,
   2, -40, 9, 22, 78, -12, -48, -82,
   13, 43, 65, -36, 19, -77, -8, 66,
   49, 81, 26, 44, 41, 4, 56, -23,
   -83, 19, -9, -77, 49, -71, -64, 50,
   -13, 1, 2, -15, -69, 53, 58, 13,
   36, 5, 18, 20, -87, -7, 55, -75,
   11, 49, -20, 11, -40, 10, 0, 48,
   -27, -47, -44, -36, -42, 27, -10, -21,
   13, -14, 37, 15, 31, -6, 13, -24,
   -1, -29, 24, -33, -91, 6, 27, -54,
   48, -22, 38, -32, 70, -41, 0, -25,
   -27, 32, -13, -28, 32, -14, -23, 66,
   32, -30, -42, -7, 21, 10, -35, -23,
   24, -13, -8, -9, -40, -56, -24, 19,
   -26, -39, 58, -19, 9, -54, -43, -60,
   51, -55, 53, 22, 28, 11, 13, -31,
   35, -68, 2, -1, 22, -26, 27, 33,
   -12, -50, 8, -1, 98, -30, -28, 7,
   -23, -15, -26, -33, 4, 32, 22, 48,
   45, 6, 47, 33, -15, 14, 33, -1,
   59, 21, -1, 26, -5, 84, -6, -8,
   44, -43, 17, 48, -120, -54, 32, -40,
   -2, 64, -49, 36, 2, -52, 30, -28,
   6, 24, 59, 36, -17, 18, 7, 40,
   66, -23, 21, 0, 58, -28, -15, 38,
   -18, 10, -28, 30, 9, -26, 21, 20,
   93, 14, 56, -38, 9, 17, -49, -13,
   -57, -40, 52, -9, 21, 78, -35, 43,
   96, -3, 6, 69, -39, -48, 33, 30,
   36, -14, -50, -48, 40, 41, -70, 39,
   77, -15, 127, 53, 24, 4, -9, -98,
   113, -47, -51, -4, 47, 73, -3, 33,
   -11, -28, -32, 94, 31, -29, -62, 21,
   99, 31, -4, 71, -33, -61, -83, -91,
   -18, 58, -26, 51, 27, -60, 122, -16,
   -19, 10, 48, 52, -113, 20, 14, 3,
   80, 20, -46, 57, 109, -25, -27, 16,
   -61, 6, 86, 29, 28, 30, 9, 36,
   -5, 86, -37, -52, -47, -49, -6, 13,
   108, 12, 60, -26, -128, -21, -7, -22,
   27, -64, 49, 60, -43, -6, -22, -37,
   -47, 9, -2, -65, -27, 7, 67, -30,
   -9, -47, -34, 39, -26, -23, 48, -24,
   -50, 16, 14, -42, 19, 10, -18, -5,
   26, 33, 47, -23, 10, -12, 127, 19,
   -23, -79, 36, -3, -6, 6, -39, 18,
   43, 45, -37, -32, 20, -2, -42, 54,
   -7, -4, 45, -3, -9, -13, -18, 80,
   24, 105, -128, 18, -46, 34, 21, -51,
   10, 63, -49, 39, -30, -11, -128, -117,
   12, -1, -68, -87, -3, 98, 51, 51,
   -78, -61, 42, 10, -23, -81, 107, 25,
   -77, -26, 71, 36, -45, 40, -54, 12,
   70, 125, -95, -40, 7, -49, -9, 15,
   -24, 12, -59, 8, 2, 39, -38, -8,
   -19, 23, -41, -59, -14, 29, -128, -14,
   13, -14, 3, 108, -110, 30, 67, -86,
   -10, 13, 64, -46, -8, -12, 24, -2,
   -66, 28, 50, 62, 2, 23, -70, -56,
   -39, 72, -25, 12, 105, -56, 46, 32,
   -27, -90, -22, 14, 53, 63, 3, -14,
   13, -2, -39, 5, 6, 36, 56, 43,
   -47, -47, 61, 37, 74, 42, -15, 67,
   8, 61, 86, -55, -104, 16, -7, 85,
   -18, 61, -11, 83, -64, 4, -38, -14,
   16, -2, 124, 50, 4, 18, 67, 42,
   -48, 105, 44, -42, 21, -101, 24, -1,
   34, -88, -16, 39, 20, 55, -20, -11,
   -32, -4, 53, 76, 62, 38, -125, -25,
   59, 75, 26, 40, -6, 120, -43, 19,
   -74, 23, 8, 47, -24, -36, -44, -3,
   -114, 34, 44, 39, 64, -87, -1, 38,
   -43, 54, 73, -58, -52, -53, -38, 10,
   -25, -30, -5, -65, -10, -50, -76, -5,
   54, -2, -3, -85, -72, 1, -6, -76,
   -22, -63, -24, 31, 127, -29, 4, -10,
   31, -10, -5, -6, 47, -22, 14, -32,
   -111, -48, -33, 14, 82, -91, 21, 37,
   95, 40, -127, -16, 7, 26, -66, 21,
   -59, 61, 14, 127, -69, 59, 9, -20,
   -8, -16, 4, 16, 35, -52, -10, -10,
   8, -5, 58, -54, 40, 13, -108, 69,
   11, -7, 76, 62, -13, -52, -69, 15,
   -105, -7, -67, -14, 91, 24, 48, 7,
   100, 65, -40, 43, 101, 24, -32, -100,
   37, 19, -47, -25, -64, 16, 19, 49,
   -48, 2, 59, -11, 23, 107, -53, 25,
   16, -42, 4, 22, 67, 23, 45, -53,
   -18, 8, 103, 47, -30, -42, 30, 16,
   -1, 125, -51, -76, -59, -11, -84, 4,
   68, -30, 27, 6, 110, 15, -9, 19,
   -59, -22, 16, -10, -11, -9, -9, 69,
   -20, 61, 19, -11, -37, -87, -103, -19,
   59, -61, 9, -42, -17, 47, -66, -88,
   13, 27, -38, 11, 32, 15, -65, 3,
   34, 45, 43, 12, -24, 5, 39, -8,
   -127, 18, 35, 49, -29, 46, 89, -56,
   -20, 59, -47, 76, -3, 11, 31, 33,
   102, 29, -33, 64, 1, 56, 10, -16,
   -16, -41, -52, 91, -74, -3, 75, 107,
   -30, 42, 90, -106, -40, 46, -67, 53,
   -96, -57, 28, 8, 26, 19, 36, 11,
   5, 58, -17, -34, 1, -49, 21, 55,
   -17, -65, 17, -29, -76, 24, 40, -41,
   -34, -47, 45, -49, 47, 11, 73, 18,
   39, -20, 38, 50, -47, 127, 22, -61,
   -54, -69, 3, 50, -28, -19, 94, 19,
   -76, 78, -57, -43, 117, -88, -45, 22,
   -96, -11, -102, 4, -72, 14, -16, 25,
   33, -40, 80, 31, -41, 15, -50, -71,
   -50, -62, 107, 60, -38, 106, 51, -60,
   8, 46, 56, 96, 32, -2, 20, -15,
   2, -24, 20, 52, 21, 16, -6, 42,
   8, 71, -33, -50, 15, -5, -13, 33,
   3, 39, -10, -42, 22, -28, -33, -16,
   -9, 35, 32, 40, 20, -8, 20, -18,
   -4, 21, 9, -3, -43, -6, 49, 4,
   -7, -26, 59, -11, -76, 6, -41, -77,
   24, -47, -9, 54, 26, -84, -9, -13,
   -16, -16, -8, -20, 25, 4, 0, 32,
   -25, 3, 12, -41, -41, -11, -2, 42,
   -3, -25, 28, 28, -41, -22, -21, -10,
   -11, 26, -49, -93, -31, -20, -53, 21,
   22, -9, 26, 19, 57, -12, 21, -17,
   22, 5, -17, -9, 26, -49, -18, 13,
   -30, -65, -6, -26, -15, 29, 24, 40,
   13, -14, -47, -3, 12, -45, 43, 6,
   17, -5, -2, 42, -51, -2, 52, 24,
   -46, 13, -2, 106, 90, 23, -44, -20,
   27, -38, 20, 29, -36, -52, 49, 45,
   53, 11, 66, -14, 24, -10, 5, -31,
   -14, 4, -28, 10, -48, -19, 11, 35,
   17, -9, -62, 10, 33, -44, 34, -6,
   -20, 49, 45, 6, 32, 59, -2, -28,
   -59, -74, 41, -44, -42, -28, -10, 8,
   19, 25, -10, -7, 46, 24, -29, 50,
   18, -40, 23, 32, 11, -100, 30, 6,
   51, 52, 61, -27, -7, 37, 45, 67,
   41, -16, -7, 7, 49, -3, -57, 57,
   59, 13, -19, 65, 97, -57, 48, 52,
   -61, 56, -11, 57, -17, -40, 24, 3,
   56, -27, 2, 34, -25, -11, -31, 51,
   -45, 49, 6, -22, 51, -26, 49, 50,
   23, 14, 11, 18, -41, 17, -34, 53,
   18, -41, -39, -7, -2, -47, -28, 25,
   -32, -10, -66, 41, 41, 20, 53, 1,
   -23, 50, 6, -21, 46, 34, 4, -32,
   18, 46, 12, 39, -46, 1, -1, 83,
   21, -50, 12, 51, -44, -33, -38, 34,
   -11, -66, -70, -26, -6, 13, 49, 33,
   58, 55, -24, 21, 32, 76, -18, 51,
   -25, -6, -5, -19, -13, -83, -5, -23,
   -17, 42, -6, -3, -34, -10, 54, -12,
   28, -54, 59, 48, 16, -19, 47, -111,
   -2, 104, 43, -15, 19, 16, 3, 13,
   10, -78, -53, -49, -7, -36, -81, -50,
   6, 44, -106, -11, -26, -31, -8, 14,
   -24, -24, 25, -58, 11, 3, -68, 3,
   0, -22, 12, 2, -23, -8, -41, 47,
   5, 3, -24, -37, 94, 46, -79, 66,
   44, 9, -15, 14, -42, -21, -1, 7,
   -16, 36, -15, 75, 6, 10, 48, -55,
   -40, -5, 73, 0, -29, -13, 60, -38,
   3, -64, 35, -42, -9, -12, -64, 3,
   64, 17, 21, -30, 48, 61, -23, -53,
   6, -52, 47, -47, -28, -5, -2, -18,
   18, -3, 47, 36, 17, 4, -12, -3,
   -31, 118, 14, 12, 82, -82, 50, 67,
   -33, -12, 2, 21, -18, -92, -69, 8,
   11, 49, -50, 34, 39, -29, 42, -39,
   -6, -28, -71, -46, -31, 1, 16, 45,
   56, 57, 10, 6, 48, -11, -34, -79,
   -33, -75, -21, 45, 10, -90, -51, 68,
   17, 29, 28, 11, -26, 83, -27, 18,
   -9, 63, 1, -4, -10, 0, 25, 75,
   -2, -25, -85, 30, 120, -32, 31, -7,
   -6, -5, 29, 65, -1, -122, -23, -33,
   51, 19, -37, 65, -24, 0, 29, 97,
   -58, -28, -16, -16, 35, 27, -34, 90,
   -60, 27, 34, 18, 1, 20, 57, 23,
   -28, 9, -22, 11, 79, -57, 73, 10,
   -51, -4, 11, -11, 30, 26, -30, -1,
   20, 12, 1, -15, 58, 84, -4, 1,
   -11, 10, -124, -26, -19, 28, 14, 64,
   -32, 85, 74, 5, -1, -28, -48, -5,
   -8, -102, -32, 63, 7, 2, 34, -46,
   23, -46, 24, 2, 41, 33, -14, 54,
   5, 41, 4, 34, 23, -24, 5, 29,
   39, -3, -104, 42, -67, 5, 4, 33,
   -16, -30, 53, -38, -16, -22, -14, -57,
   49, -21, 48, -22, -22, -91, 0, 30,
   30, -102, 48, 30, -24, -36, -50, -3,
   7, 9, -74, 20, -81, -7, 50, 9,
   -17, 5, -5, 2, -5, 27, -18, 14,
   -16, 42, 27, 51, -50, -46, -24, 42,
   17, 66, -31, -76, 30, -16, 42, 110,
   -72, 60, 100, -66, -76, 0, -11, 7,
   -58, 0, -38, 64, 37, 16, 19, -98,
   -32, 42, -12, -9, -4, -63, -20, -16,
   -9, -24, -31, 18, 36, 28, 7, 17,
   -55, 47, -9, -54, 56, -29, 26, 18,
   -7, -8, 58, -8, 36, -31, 3, -66,
   23, -14, -19, -54, 66, -38, -36, -34,
   -2, 111, 10, 84, 39, 28, 76, -16,
   -52, 72, 64, -22, -36, -12, 9, -22,
   -63, 51, -82, -15, -110, 4, -36, -3,
   51, 34, -49, 3, -85, 40, 10, 20,
   -21, 36, -13, -19, 121, -61, 97, -56,
   65, 95, 16, 55, 41, 44, 10, 86,
   -58, -33, 37, 21, -13, -1, -8, -13,
   -22, 34, -19, -9, 4, 24, -57, -28,
   91, 51, 2, -4, -18, 37, -59, -95,
   25, -26, 27, -6, -42, -66, 64, 15,
   -5, 68, -101, -3, -4, 59, -52, 31,
   -80, -59, -3, -61, 29, -2, -61, 26,
   -59, -4, 111, 22, 58, 9, -35, 29,
   -12, -25, 4, 67, 12, 64, -63, 127,
   12, -23, -8, 5, -34, 67, -53, 58,
   -38, -57, 61, -17, 78, 13, 1, -57,
   43, 16, 48, 27, 24, 48, -20, -29,
   -42, 10, -29, -3, -25, 23, 0, -36,
   6, 73, -23, 75, 15, -12, 20, -19,
   -128, -10, -32, 59, 11, -1, -20, 13,
   -71, 41, 29, 6, -75, -3, -11, -4,
   47, 30, -31, -37, 3, -31, -6, 109,
   -59, -18, -25, 33, 100, 24, -20, 0,
   -63, -8, -126, -27, -8, -78, 55, -18,
   13, -67, 30, -32, -12, 1, -74, -60,
   51, -63, -2, -104, -63, 44, -5, -37,
   -71, -16, -7, 68, 42, -20, -22, -47,
   41, 10, -22, 21, 65, 2, -78, 52,
   57, -50, 31, -33, -32, -112, -56, 68,
   17, -57, 51, -73, -80, 6, -4, 74,
   -35, -11, 42, -43, -39, 33, -83, -25,
   106, 3, 29, -74, 67, -8, -42, -8,
   -36, -35, 38, -34, 22, -16, -42, -13,
   -43, 22, -50, 6, 19, 60, -30, -35,
   31, 14, 56, 4, -46, -43, -3, -9,
   -89, 23, 55, -17, 55, -5, -54, -46,
   5, -2, -32, -39, 37, -14, -74, 2,
   -128, -35, 25, 4, -39, -2, -6, 57,
   -96, 34, 23, 0, 27, -8, -18, -3,
   17, 48, 28, -10, -43, -53, 47, 57,
   -15, 45, -53, -12, 44, 43, -107, 55,
   -17, 34, -57, -7, -4, -50, 73, -48,
   40, -32, -26, -20, 6, 40, -98, -79,
   36, 25, -29, -70, -20, 73, 1, 17,
   -43, 37, -9, -70, 11, -36, -29, 32,
   -8, -14, -59, -44, -48, 10, 11, 72,
   42, 7, -2, 14, -33, -114, -59, -11,
   -3, -31, 48, -37, -58, -57, -15, 17,
   8, -29, 47, -39, -63, -27, -78, 2,
   39, 1, -49, -32, 95, -15, 32, -3,
   -15, -1, 17, -32, -28, 36, -58, 15,
   -37, 5, -37, 62, -36, -10, -16, -46,
   24, -42, 79, 20, -58, 47, -36, -79,
   -31, -48, 52, -26, -15, -46, -6, -24,
   -1, -55, 17, -15, -25, -42, -96, 62,
   -46, 23, 88, -55, 33, -45, 54, 22,
   -128, 26, 12, 22, 24, -25, -21, 52,
   -12, -20, 31, -23, -59, -1, 37, -25,
   111, 32, 51, 45, -128, -9, -54, 39,
   16, 9, -48, -9, -35, 34, 38, 3,
   16, -18, -17, -23, 10, 51, -88, 1,
   -67, 18, 66, 3, -18, 45, 50, -52,
   28, -39, 16, -52, 49, 67, -44, -97,
   -40, -16, -25, -91, -45, 55, 11, 52,
   -45, -7, -3, 67, -18, 28, -17, -118,
   -35, -1, -19, 13, -29, -18, 84, 66,
   -39, 9, -36, -10, 5, -71, -70, 60,
   -120, 52, -73, 6, 62, 26, 50, -29,
   0, -4, 1, -102, -50, 51, -50, -12,
   -36, -63, -3, 110, 38, -74, 28, 21,
   -85, -8, 34, 13, -15, 36, -3, -50,
   105, -11, -82, 47, -21, -25, 80, -1,
   15, -19, 47, -29, -14, -57, 7, -25,
   15, 69, -128, -7, -5, -56, 6, 54,
   -52, 15, 5, 16, -50, -12, 107, 49,
   13, -85, 73, -8, 39, -27, -33, 43,
   49, -2, 43, 19, -99, -43, 26, 11,
   34, -48, -54, -44, -47, -81, -50, -58,
   -25, -93, 25, 32, 49, -10, -28, 29,
   -24, -9, 127, -61, 27, 104, -103, 11,
   -16, -12, -29, 41, -17, 72, -20, -71,
   5, 8, -33, -24, 45, 57, -54, 53,
   -55, 18, -6, -5, -66, 81, -10, -57,
   35, 5, -16, -63, -8, -15, -18, 54,
   20, -23, 38, -27, -56, 0, -120, -27,
   29, -19, 126, -36, -47, 53, -55, 16,
   -19, -16, -28, -2, -33, -34, 25, -12,
   -22, -95, -12, 5, 8, -43, -55, 12,
   -3, -13, 48, 2, -1, -8, -35, 13,
   -32, -4, -72, -46, 4, -17, 27, -15,
   28, -47, -48, -45, 0, 43, -81, 23,
   0, 89, -95, 48, 64, 1, 0, 19,
   2, -55, 14, -4, 24, 68, 44, 29,
   20, -77, 88, 26, 66, -12, -85, 26,
   51, 74, -31, -36, -19, 78, 30, 70,
   -71, -72, -4, -60, -57, -50, -21, -71,
   -39, -125, 60, 28, 17, 77, -69, -58,
   -13, 36, -49, 10, -19, -37, -128, -12,
   -84, 1, 9, -75, -99, 9, 6, 10,
   -70, -19, -17, 37, 28, -114, -35, 13,
   -55, -29, -122, -6, -55, 45, -32, -55,
   0, -123, -28, -104, -24, 4, 11, -19,
   -3, 21, 88, -5, 58, 2, -88, -25,
   82, 86, 44, -39, 22, 11, -85, 24,
   52, 12, 52, -44, -89, -14, -42, -56,
   -15, -73, -46, 12, -15, 121, -50, -108,
   -28, -89, 38, -14, 57, 18, 7, -18,
   -93, -127, -116, -44, -23, 29, 0, -33,
   -6, -6, -85, -21, -36, 74, 36, 59,
   -40, 80, -9, 49, 5, 78, -16, 74,
   -20, -75, -8, 8, -14, 44, -21, 58,
   77, -51, 4, -2, 49, -45, -65, 61,
   64, -4, 47, -43, -81, 90, 28, 127,
   -22, -70, -102, 32, -2, 88, 82, 2,
   -37, -11, 80, -10, 99, 29, 49, 45,
   1, 59, -66, 77, -87, -114, -113, -51,
   -52, -48, 40, -31, 102, 85, -3, -128,
   -43, 53, -3, 34, -4, -35, -16, 25,
   -9, -32, 16, -20, -21, -46, 25, -88,
   -33, 27, 66, -32, 11, -102, 60, -80,
   63, 30, 11, 3, -9, -22, 36, 0,
   -26, 60, 54, 58, -14, -51, -49, 28,
   -16, 29, -61, -50, 29, -25, 96, -32,
   52, 83, -15, -59, 10, 5, 27, -60,
   -76, 24, 96, -68, -23, 125, 0, -26,
   127, 21, 44, 4, -39, -73, -6, 41,
   -18, -94, 43, -66, 42, 30, 9, -1,
   -48, -60, 36, -19, -35, -21, -22, 72,
   -2, -10, -15, 4, -31, 6, 41, 30,
   -22, 32, 13, 8, 10, 50, -46, 11,
   -30, 44, 29, -27, -51, -9, -19, 21,
   2, 84, 93, -53, -38, 33, 24, -104,
   6, 20, 4, -29, -33, -11, 3, 40,
   -31, -21, 19, -44, 29, -19, 12, 19,
   19, 17, 31, -11, 9, 14, 4, -21,
   14, -34, -30, -4, 13, -5, 47, 30,
   35, 24, -17, 7, 18, -2, 19, -128,
   -19, 83, -7, -21, -22, 38, 4, 13,
   35, -20, 42, -11, 42, 1, 11, 11,
   -15, 14, -34, 23, 25, -34, 57, -29,
   17, 32, -21, -29, 34, -28, 15, -19,
   29, -27, 2, -10, 34, -17, -26, -101,
   5, 40, 40, 5, 24, 11, -12, -36,
   30, -2, -32, 23, 20, 37, 31, 16,
   39, -31, -43, -3, -25, 1, 28, 0,
   -55, -14, 33, 24, -16, 9, -14, -49,
   -1, 81, -20, 37, 50, -32, -15, -24,
   -38, -11, -21, 11, 14, 11, 0, 64,
   -27, 13, -49, 3, 6, -36, -10, 0,
   -61, 12, -69, -23, 23, -17, -43, 27,
   -31, -7, 26, -13, 33, 15, -41, -56,
   17, 26, 34, -22, 14, -1, 5, -36,
   62, -21, -7, 11, 40, 21, -11, 5,
   4, 16, 81, -7, 29, -35, -20, 4,
   -13, 44, -33, 1, 50, -21, 9, -20,
   -3, 8, 8, -14, 28, -20, 2, -8,
   5, -37, 10, -9, -3, -7, 14, 38,
   4, -52, 36, 42, -11, -36, -6, -2,
   13, -28, 31, -13, 4, -31, 22, 27,
   -33, 58, -13, 19, -31, 36, 34, 35,
   -12, -29, -47, -19, -35, -14, -28, -20,
   -13, -15, -7, 45, 10, -53, -15, -9,
   36, 3, 0, -33, 11, 55, -1, 4
};

static const rnn_weight noise_gru_recurrent_weights[6912] = {
   -19, 24, -17, -29, -5, 7, -31, 19,
   -22, -41, -42, -14, -27, -30, -43, -5,
   -8, -7, -44, 47, 0, -18, -54, 41,
   -32, 15, -63, -3, 11, 13, 26, -40,
   -35, -33, -49, 36, 17, -2, 36, -22,
   -1, -40, -72, -22, 0, 51, -48, -7,
   -21, -26, -22, 29, 12, 26, -30, -9,
   10, -32, 29, -13, -12, -43, -10, -8,
   -3, -3, -4, -20, -34, 21, -1, -5,
   13, -6, 17, -55, 41, -17, -63, -6,
   18, -35, 18, -43, 13, -14, -30, 29,
   -19, 2, -8, -7, -63, -38, 20, -22,
   24, 2, 52, 7, -16, -30, 32, 35,
   -2, 31, -16, 18, 9, -25, -20, 31,
   10, 9, 23, -34, -44, 1, -31, 19,
   48, -18, 12, -52, 29, -46, -70, 65,
   -33, -7, 53, -1, 9, -27, 6, -5,
   -8, -43, -15, -19, 20, 5, -9, -2,
   -11, -24, -10, 44, -59, -24, -3, -8,
   47, 21, 17, -1, 49, -33, -8, -30,
   -5, 4, -15, 52, -24, -68, -34, 82,
   16, -16, 6, 28, 36, 22, 7, 63,
   -37, -21, -52, 37, 29, 37, -5, -15,
   32, -49, 11, 13, 9, 15, 9, 35,
   4, 19, -2, 29, 25, -60, -12, 32,
   -5, 16, -33, -61, 30, 4, 1, -14,
   -4, 15, 18, -8, -45, -24, -11, -12,
   4, 46, -10, -49, -4, 21, 7, 1,
   -14, 7, -15, 40, 46, 32, 18, -37,
   114, 33, -39, 3, 8, 31, -5, -31,
   -1, 9, -25, 0, 10, 66, -32, -22,
   -18, 65, -32, -5, 18, 11, 20, -5,
   2, -33, 7, 3, -16, -14, 2, 6,
   -22, -11, 29, -7, 1, 67, -8, -6,
   35, -11, -11, 21, 26, 36, 24, 6,
   31, 31, 53, 30, 12, 59, -14, -19,
   -10, 42, -52, -38, 17, 1, -25, -7,
   -70, -6, 27, -27, -6, -36, 15, -51,
   -20, 8, 28, 47, -60, 13, -9, -42,
   10, 17, -25, 27, 25, -42, -47, 31,
   -40, -45, -33, -21, -23, 21, -11, -4,
   -31, -11, -5, -37, -3, -8, 0, 10,
   26, 9, 23, 57, 39, 29, -2, 114,
   -54, 13, -3, 45, -20, -47, 28, 13,
   60, -5, 5, 12, -16, 65, 25, -12,
   -41, -28, 19, -50, 22, 25, -78, 7,
   -8, -18, 24, 3, 16, 18, -18, 31,
   -28, 3, 14, -13, -43, 13, 11, -44,
   11, 41, 34, -10, -14, 11, -36, -13,
   16, 16, 33, 67, -25, 18, 25, 26,
   24, 8, 35, 20, 21, 2, -19, 23,
   26, 63, 19, 9, 0, -73, 19, 7,
   4, 99, 32, 17, -5, -3, 1, -51,
   6, -5, -8, 51, 2, 11, 19, 7,
   6, -26, -3, -19, -19, 40, 22, 39,
   42, -1, -40, -16, -17, 6, -37, -22,
   -27, -10, 40, 29, 15, -42, -15, -8,
   -21, -70, 49, -17, -45, -1, -27, 43,
   -7, -10, -37, 33, -15, 58, -54, 2,
   -8, 41, 5, -16, -22, -24, 35, 0,
   2, -7, 45, 13, -28, -1, 87, 5,
   14, -35, -38, -54, 16, 25, 21, 39,
   3, -46, -1, -31, -10, 5, 18, 8,
   -11, 23, -25, 41, -12, -45, 17, -48,
   31, -8, 8, 34, -5, 11, -14, -16,
   90, -1, -55, 9, -3, -10, 2, -35,
   -38, 0, -55, 36, 19, -14, 8, 66,
   20, -1, -15, -8, 32, -2, 15, -1,
   54, -38, 18, 8, -16, -5, -27, 8,
   18, 26, -9, 2, 1, 25, 32, 3,
   25, -10, 4, 31, -41, 7, -26, -18,
   7, 38, -27, -32, 27, 64, 49, -13,
   -19, 58, 62, -44, -67, -102, 5, -13,
   -41, 26, 36, 25, -24, 19, -76, -57,
   32, -15, 29, -35, -20, -31, -13, 47,
   -38, 30, 55, 52, -8, -26, 1, 18,
   30, 19, 5, 11, 23, 3, -18, 40,
   -13, 83, 16, -3, 9, -34, -42, 46,
   -7, -34, 20, -28, -17, 18, 32, -4,
   54, -8, -12, 45, 21, 18, -8, 27,
   3, -12, 0, 1, 16, -9, -11, 11,
   -9, -56, 28, 15, 10, -72, 32, 9,
   7, -25, -35, 1, -1, 24, 4, -46,
   -9, -1, -10, -52, -18, -48, -20, -96,
   13, 4, -10, 15, -7, 68, 12, -33,
   25, 30, 16, -8, 39, -17, -19, -30,
   -6, -30, 6, -10, 1, -1, 41, -11,
   2, 20, -28, -14, 12, -42, -17, 21,
   43, 38, 17, -10, -28, 21, 15, 7,
   16, -8, -48, 8, 54, 32, -31, 74,
   46, 50, -25, 11, 100, -21, -14, -10,
   27, 59, 15, 6, -12, -53, -14, 2,
   20, -86, -1, 32, 55, 23, -39, -27,
   -42, 64, 18, -14, 18, -24, -13, 17,
   31, -30, -3, 5, 21, 72, -35, 53,
   -15, 55, -65, -1, 4, -26, 21, 3,
   5, -35, -21, 2, 4, -12, -25, 6,
   12, 38, -10, -4, -45, -18, -31, -3,
   -20, 32, 33, -17, 4, -18, -2, -16,
   -41, -33, 8, 3, -4, 15, -51, 3,
   17, 8, 2, -9, -3, 2, 44, 11,
   16, -1, -60, -60, -22, 13, -11, -26,
   -6, 10, 6, 17, -12, 35, -24, 8,
   2, 53, -21, -4, 1, 6, 12, 31,
   -28, 40, 19, -40, -44, -24, 2, -15,
   1, -4, -9, -33, 39, -33, 18, 18,
   20, 9, 23, 20, -34, -22, 13, -75,
   15, -46, -15, 25, 2, 51, 28, 15,
   -38, 34, 31, -49, -26, -32, 18, 15,
   -54, 1, 4, -41, -12, -17, -12, -19,
   57, -58, 36, -14, 33, -32, 53, 101,
   -29, 10, 19, 17, 17, -7, 28, -18,
   26, 20, 63, -10, 45, 31, -14, 32,
   -28, 28, -16, -9, 55, -26, 27, 60,
   44, 3, 16, -25, 51, 10, 11, -27,
   -32, 31, -2, -24, 39, -16, -38, 24,
   -9, 1, -36, 3, -48, -46, 17, -5,
   35, -13, 8, 5, 39, 0, 0, -17,
   -24, -8, -1, 9, -2, -27, -44, 22,
   -35, -5, 13, -16, -4, 5, 4, -36,
   36, -10, 40, 34, 14, 28, 11, -6,
   -8, -9, -19, 1, 9, 6, -17, 36,
   14, 47, 79, -33, -6, -13, -1, -14,
   51, -29, 3, 13, 0, 7, 3, -33,
   12, 0, -59, -17, -27, 5, -14, -72,
   -3, -4, -7, -3, -5, 32, 4, -41,
   -19, -2, -31, 36, 9, -9, -16, 32,
   -11, 6, 16, -18, 6, -25, -5, -11,
   30, 22, 23, 34, 64, -22, 33, -4,
   -69, 32, 33, -40, -21, -16, 13, 20,
   25, -2, 8, 26, -32, -15, 21, 33,
   -10, -8, -35, -17, -49, -24, -55, 43,
   28, 29, -13, -26, 16, 28, 58, -18,
   22, 3, 46, -46, 26, -22, 8, -1,
   30, 11, 7, -27, 73, 19, 24, -8,
   -20, -60, 8, -13, 9, 14, 11, -8,
   16, 31, -25, 13, -1, -68, -53, 31,
   0, 17, -73, -6, -29, 35, 34, 18,
   50, 24, 20, 10, -4, 25, -4, 16,
   -38, 32, -13, -3, 20, -27, 37, 14,
   43, -14, -14, -26, -40, -17, 7, -25,
   -4, 6, 11, 26, -75, 0, -2, 0,
   -30, -7, -2, 56, -23, -7, -34, 0,
   -4, 6, 7, -37, 34, -22, -2, 62,
   19, -24, -7, -55, -3, 18, 2, 2,
   -37, 0, -10, 15, 20, -13, -27, -27,
   33, -39, 2, 65, 6, -20, 19, 6,
   14, -15, 13, 39, -4, 0, 23, 32,
   4, 17, 61, -60, -40, -4, -12, -3,
   -17, 16, -11, 13, -6, -29, 22, -7,
   10, -21, 85, -18, 5, -24, -50, 1,
   29, -36, -31, -23, -4, 90, -11, 23,
   3, -15, 14, -15, 44, 7, -5, 31,
   23, 5, 16, 6, -14, -12, 17, -4,
   4, -2, -31, -8, 32, 38, -1, 4,
   34, 2, 18, 6, 10, -94, 17, 33,
   -22, -12, -36, 41, -17, 7, -14, 16,
   -8, -9, 19, 9, -16, -1, 48, -48,
   32, -26, -31, -54, -1, 8, 43, -6,
   9, -10, -23, 39, -26, -27, 11, -27,
   -16, -38, -26, 56, 6, 9, -12, 1,
   -29, 18, -83, 44, -22, -5, 30, -29,
   -38, 21, 8, -1, 9, 21, 27, 38,
   -14, -17, -10, 30, -17, -36, 24, -31,
   42, -13, 7, -1, 69, 5, -13, 27,
   19, -28, 1, -3, 21, -19, 28, -40,
   -3, -24, 32, 14, 31, -34, 61, 57,
   -40, -4, -32, -15, 25, 45, -35, 62,
   -30, 13, 14, 16, -18, 14, 19, 23,
   -6, -23, -23, 51, -43, 39, 22, -11,
   -33, -11, 23, 5, -46, -7, 21, 11,
   -5, -28, -31, -35, -23, -16, 8, -15,
   49, -24, -17, 2, 29, 10, 13, 17,
   -28, 45, -17, -41, -2, -15, -11, 30,
   38, 18, 7, 23, 13, 37, -3, -42,
   7, 33, -40, -47, 76, 2, 33, 38,
   23, -5, 13, 43, -28, -25, 41, -8,
   52, 4, 36, 20, -5, 37, 42, -36,
   25, 16, -11, 4, 17, 8, -33, -7,
   6, 30, 33, 9, -25, 2, -17, -26,
   41, -41, -17, -8, -2, -25, -21, 16,
   3, 34, 13, 16, 27, -8, 4, 17,
   10, -7, 30, 27, 1, 20, -11, 12,
   21, 28, -18, 30, -32, -5, 11, 9,
   21, -25, -53, -23, -15, 50, 57, -14,
   64, -8, -6, -32, -21, -49, -10, 19,
   29, 6, 45, 19, 16, -12, -17, -102,
   -31, -36, 5, -16, -1, 1, -45, 45,
   -4, 46, 0, 0, -17, 12, -1, 35,
   25, 35, -49, 14, -28, -47, 6, -25,
   50, -9, -1, -16, -28, -42, 54, -15,
   19, -33, 24, -30, -4, 9, 17, -23,
   34, -1, 15, -4, 17, -42, 14, 77,
   -12, -46, 17, -42, 9, 40, -12, -9,
   -27, 74, -17, -24, 38, 4, -8, 35,
   5, -5, -14, -27, -50, 16, 24, 0,
   -12, 0, -2, -30, -30, 0, 9, -38,
   10, -47, -20, 10, 38, 26, 25, -42,
   -8, 26, 64, -7, -27, -26, -1, -23,
   21, 11, 18, 17, 33, -45, -54, 14,
   -39, -6, 44, -4, 8, 24, 21, -3,
   -68, 46, 3, -39, 17, -7, 28, -19,
   -20, -40, -21, 8, 13, 26, -30, 39,
   -15, -20, -28, -14, 42, -21, -28, 32,
   -13, -32, 1, -23, 25, 20, -14, 1,
   30, 60, 9, -12, 19, -14, 41, -3,
   -12, 3, -38, -25, 2, -15, -2, 20,
   -69, 69, 5, -1, 11, -1, -26, -3,
   17, 27, -51, 51, 31, -15, 19, 24,
   -9, 54, -24, -33, 11, 19, 10, -10,
   -1, -5, 18, -2, 5, -23, -14, -10,
   -3, 31, -5, 2, -14, 11, 18, 68,
   28, 5, 5, -11, 10, 27, 19, 23,
   1, -2, -1, 17, 15, 22, 21, 25,
   -26, -7, -27, -19, -50, 30, -40, -34,
   18, 4, 20, -20, -18, -30, 12, 14,
   -15, 16, 3, 16, -59, -20, -11, -27,
   50, -27, -37, -5, 28, 16, 24, 7,
   -24, 18, -12, 8, -14, -2, 22, 60,
   -10, 15, -1, -15, -25, 5, -18, 34,
   -44, 40, -37, 30, 21, -12, 11, 4,
   -15, 27, -43, 3, -21, -14, 5, 6,
   28, -36, -36, 7, 28, -30, 3, -1,
   50, 12, 18, 21, 29, 5, -3, -13,
   -14, 5, -10, 9, 28, -9, -30, 38,
   -2, 17, 7, 19, -49, -2, 3, -4,
   13, 27, 29, 4, -8, -14, 23, 3,
   -31, -59, -29, -39, 24, -6, 36, -16,
   23, -23, 58, 38, 49, -28, -22, -5,
   4, 27, -4, 9, 6, 13, -10, -47,
   36, 43, 19, 1, -3, -10, -19, 4,
   44, 27, 6, 12, -1, -24, 22, 60,
   31, -11, 46, 9, 38, -21, 17, 1,
   16, -31, 35, -13, -21, -20, 51, 0,
   -8, -25, 22, 25, 51, -15, 2, 43,
   20, 59, -50, 25, 3, 5, -6, -19,
   59, -39, 37, -15, 14, -19, 12, -15,
   34, -16, -24, 63, 14, 10, -1, 38,
   -32, -31, -26, 28, 15, 61, -37, -9,
   -8, 13, -33, -22, -15, 12, 23, 27,
   -24, 21, -42, 26, 9, -6, -3, 55,
   11, 51, -35, 39, 14, -4, 11, 26,
   16, 23, 18, 22, 7, 40, -25, 61,
   -44, 41, -34, 26, -23, -51, -5, 5,
   49, 5, -32, 10, 19, 25, 14, 32,
   49, 37, -3, -8, 22, 34, 66, 4,
   -36, -9, -6, 67, 28, -21, 14, 28,
   43, 37, -34, 48, 0, 2, -37, 23,
   -57, -59, 9, 3, -38, -30, 46, 29,
   11, -25, 18, 12, 3, -9, -1, -12,
   -23, 70, 44, 19, 17, 39, 18, -5,
   7, -12, -17, -13, 18, 51, 9, -28,
   47, -30, 72, -47, 45, 4, -10, 4,
   -16, 35, 10, 28, 39, 33, -23, -20,
   -25, 6, -35, -35, 27, 30, -5, -1,
   -2, 32, 37, -5, 58, -25, -26, 33,
   64, -35, 46, -9, 5, 127, -12, 45,
   32, 20, 21, 32, -40, -58, -15, 27,
   -23, -30, 5, -27, 22, 5, 9, 4,
   18, 39, 6, 24, -2, -15, 17, -22,
   -19, -13, 59, 15, 24, -44, 36, 17,
   -12, 3, -2, -9, 20, -49, -13, 12,
   -26, 32, 50, 7, 5, 49, -13, -20,
   45, 14, -23, -7, -42, -9, 3, 52,
   -12, -21, -23, 7, -3, 36, 11, -14,
   5, 2, 4, 30, 19, -20, 49, 36,
   -11, -1, 3, -5, -6, 123, -26, -18,
   19, -4, -33, 19, -33, 31, 19, -9,
   6, 30, -1, 4, -10, -3, 25, 20,
   28, 22, -13, 7, -12, 65, 43, -39,
   86, -17, -63, -46, 2, 33, -37, 9,
   -30, 27, -57, -3, 37, -10, -3, -18,
   -9, 6, 11, -11, 46, -5, -42, -36,
   22, -8, -29, -3, -7, -2, -5, 7,
   -11, 2, 40, 18, 17, 25, -6, -27,
   -14, 29, -30, 29, -11, -25, -35, 11,
   0, 22, -16, 1, -29, -23, -5, 0,
   20, -14, -19, -28, 13, 16, 33, 15,
   -24, 9, 24, -103, -56, -28, -50, 6,
   -39, 5, -58, 17, -3, -21, 36, -23,
   3, -7, -2, -42, 36, 35, 6, -28,
   18, -19, -4, -25, -29, 20, 2, 20,
   24, 41, 30, 44, 16, 41, -6, -31,
   -13, -63, 14, 19, 56, 8, 22, 50,
   28, -16, 26, 19, -42, -10, 41, -6,
   -9, -22, -24, -6, 16, -51, -9, 10,
   3, 41, 9, 42, -12, 56, -38, -12,
   22, 6, 21, -24, -16, -6, -22, -8,
   3, -25, 54, 22, -19, 11, -17, 33,
   40, -15, 19, -9, -5, 15, -79, -35,
   46, -32, -21, -2, -15, 0, 39, 60,
   9, -3, 25, -23, -16, -11, 25, 82,
   -16, -50, -24, 16, 16, 57, -31, 1,
   -11, 4, -26, 10, 5, 16, 27, 15,
   -15, 7, -15, -20, 48, -5, 30, -57,
   40, 5, -1, -8, 2, -18, 39, -15,
   8, -35, -45, 30, 33, 17, -14, 30,
   27, -11, -22, 13, -46, 15, 5, -71,
   18, -27, 51, -32, -34, 8, 66, -33,
   68, 60, 20, -25, 23, 22, 14, 27,
   -10, 21, -33, 25, -9, -5, 38, 13,
   4, 5, -15, -11, 8, -10, 33, -39,
   -14, -49, -15, 15, -8, -10, -24, 4,
   37, 39, -12, -6, 38, -1, 9, 4,
   25, -15, 8, 4, -12, 52, -22, -36,
   4, -14, 16, 16, 70, 47, 0, -11,
   -33, -15, 10, 2, -2, 9, 1, 28,
   -8, -45, -12, 34, -21, 22, -10, 2,
   17, -6, -34, -22, 24, -3, -8, 3,
   47, -30, 28, -38, -11, -21, 8, 10,
   32, 33, 37, -39, -37, -12, 62, -41,
   -35, -43, -7, 9, 44, -7, 18, -17,
   2, -14, 41, 4, 55, -22, -97, 1,
   -25, -8, 42, 0, 1, 9, -7, -37,
   11, -17, -7, 9, 5, 60, 22, 12,
   0, 22, 9, 26, 81, -30, 34, -20,
   -17, -39, 2, 28, 35, -29, 9, -47,
   -32, -18, -63, -21, -14, -39, -5, -19,
   68, 2, 22, -31, 5, -22, 1, 49,
   -39, -53, -67, -2, -68, -14, 17, -3,
   -17, 31, -16, 18, 42, 7, 75, -25,
   16, -66, -28, -43, -35, 35, 25, 6,
   -12, -21, 53, 66, 18, -8, -2, 9,
   -15, 15, -11, 30, 10, -80, -10, -3,
   6, 54, -35, -4, -55, 14, -17, 12,
   -2, 9, 28, 23, 22, -1, 14, 0,
   -2, -21, 43, 31, -26, 35, 1, 7,
   3, 17, -32, 3, 0, 7, 0, 24,
   30, -17, 33, -32, 4, 45, 4, 43,
   2, 26, 39, 2, -6, -14, -3, 35,
   -64, 7, 28, -7, 83, 43, 18, -24,
   -38, 6, 8, -28, 4, 17, -29, 22,
   51, -23, -16, 6, -6, -49, 29, 24,
   4, -6, 11, 17, -3, -34, 0, -4,
   -9, 26, 1, -4, 38, -42, 13, -10,
   38, 0, -14, -41, -9, 4, -4, 22,
   6, 5, -6, 43, 30, 10, 21, -11,
   26, 10, -4, 25, -25, 10, -1, -10,
   27, 8, 10, 1, 28, 15, 1, -17,
   10, 20, 23, -28, 17, 48, 28, -6,
   54, 21, 20, 41, -7, 19, 1, 35,
   13, 29, 8, -7, -15, 24, -10, -24,
   -17, 12, -16, 35, -70, 12, 26, 56,
   14, -17, 22, 27, 13, -10, 38, 41,
   47, 26, -77, 30, -28, 25, 22, -6,
   -2, 70, 84, 1, 4, -25, 3, 72,
   -19, -37, -35, 14, 6, -14, -11, -30,
   46, 2, 34, -3, 28, -2, -8, -21,
   -3, 5, 48, -15, 18, -23, -13, -62,
   37, -30, 0, 38, -47, 2, 13, -4,
   -7, 59, -11, -1, -3, -29, -17, 31,
   7, 1, 30, -39, -14, 22, -45, -19,
   38, -11, 22, -7, -5, -39, 27, -17,
   5, 67, -38, 9, 40, -30, 34, 29,
   -21, 31, 29, 32, 46, 18, -4, 22,
   -46, -53, 10, -12, 10, 26, -64, 76,
   36, 24, 45, -12, -11, -18, -6, 12,
   22, -21, 50, 44, -2, -7, -19, 22,
   -5, -3, -6, -2, -22, 10, 37, -10,
   11, 80, 34, 21, 11, -1, -15, 31,
   24, -25, 12, -28, 20, 37, -7, 3,
   28, -128, 30, 30, 3, -38, 63, 33,
   5, 69, -56, -56, 10, 58, -84, -15,
   85, 36, -18, 29, -7, -20, 6, 44,
   7, -81, -52, 80, -50, -38, 33, -33,
   -21, 59, -70, -35, -14, 63, 14, 29,
   0, 5, 3, 10, -10, 3, 5, 20,
   9, -23, -4, -9, 26, 12, -17, 70,
   33, -85, -22, 25, -22, -29, -16, 65,
   -10, -50, -7, -10, 12, 12, -28, -26,
   -49, -54, 20, 18, -4, 0, 67, 24,
   67, 26, 31, 4, -8, -1, -1, -18,
   12, -30, -9, 49, 26, 4, -2, -12,
   58, 64, 28, 21, -37, -18, -13, 33,
   19, 87, 12, -2, -1, 51, 30, 15,
   -13, 6, -36, -49, 6, 9, -3, 22,
   -7, 8, -42, 15, 18, 6, 14, -4,
   40, 32, 21, -21, 26, 12, 4, -41,
   -29, -60, -17, -62, -6, 16, 28, 22,
   2, 51, -1, 35, -46, 31, -88, 13,
   -35, 33, -36, -9, -35, 15, 4, -69,
   -43, 9, -12, -21, 114, -18, 34, 61,
   14, -33, -25, -51, -4, 7, 58, -62,
   41, 13, -31, 8, -57, 6, 51, 37,
   -42, 35, -18, -8, -29, -6, 10, -11,
   -67, 6, 44, 49, 39, 45, -13, -9,
   -3, 28, -4, -8, 11, 6, -33, -47,
   5, 28, -7, -38, -10, -4, -6, 35,
   9, -3, 13, 37, -2, -42, 58, 45,
   -87, 13, 2, 0, -22, 18, 8, -11,
   16, 26, 15, -31, -15, 16, -26, 18,
   14, 31, 6, 25, 62, 18, 17, 24,
   -44, 43, 10, 17, -22, 10, 22, 38,
   34, -45, -51, -15, 24, -63, 22, 51,
   0, 10, 25, 7, 22, 11, -13, -28,
   -67, -2, -32, 8, -34, 10, -30, 7,
   -57, 29, -26, 5, -35, 9, 53, 6,
   -15, -17, -42, 0, 19, 13, -25, 2,
   8, 3, 5, 0, 27, 29, -7, -53,
   -73, 89, 50, -26, -89, -5, -32, 43,
   23, -32, -43, 32, -53, 4, 3, 27,
   -49, -17, -67, 36, 15, 29, 2, 20,
   -16, -42, 60, 9, 18, -51, -24, 23,
   -31, -10, 38, 36, -19, 59, 22, 0,
   12, 10, -28, -34, -35, 34, 5, 1,
   -5, -2, -15, 4, -24, 44, 10, -43,
   20, 13, 15, 13, 5, 44, -41, 31,
   14, 15, 61, -1, 2, -32, -26, -6,
   55, -15, -42, 40, -8, 17, 0, 25,
   11, 22, 51, -13, -21, 8, 9, -7,
   20, -36, 32, 0, -17, -41, 17, 30,
   23, -29, -33, -33, -22, -32, 35, -39,
   19, 22, 12, 12, -5, 37, 24, 3,
   76, -16, -13, 3, -8, -23, 56, -6,
   70, 35, 14, -80, 34, -5, -14, 14,
   -42, -40, 37, -32, 38, -27, -77, -26,
   -4, 10, -15, 9, -4, -41, -22, 44,
   0, 10, 45, 36, 42, -54, 7, 23,
   15, -19, 6, -16, -49, 15, 19, 1,
   5, 6, -67, 11, -71, 26, -53, 56,
   9, 40, 5, 5, -67, 39, 22, 8,
   25, -9, -42, 15, -14, 68, -53, 24,
   51, 25, 10, -27, -50, -7, -11, -25,
   -10, -6, -25, 10, -24, -25, -10, -14,
   18, 68, -25, 2, 12, -13, 3, -66,
   -38, -36, -1, -36, 38, 20, 36, 21,
   -24, 25, -1, 26, -25, 68, -43, -34,
   0, 22, -12, -4, -1, 10, 42, 73,
   -19, -14, 20, 23, -10, 26, -17, -10,
   3, -13, -27, 12, 39, 29, 53, 16,
   4, 34, 22, 22, -69, 9, 2, 26,
   -2, -5, 33, -14, 53, 18, 30, -79,
   6, 22, -6, 12, 11, 8, 26, 47,
   7, -32, -63, 21, -2, 45, -5, -2,
   49, 30, 30, 48, -3, -30, -43, 56,
   -26, -36, 23, 31, -2, -37, 2, -5,
   10, 0, 25, -3, 1, -6, -23, -15,
   -3, -81, -57, -26, 2, -49, -17, -17,
